1988 128
呗 0.009942489 -0.007172429 -0.07641489 -0.032057334 -0.14871384 -0.2603087 -0.082815334 0.20748416 0.10989828 0.018645225 0.16652617 0.06797299 -0.047017045 -0.11093495 0.07965296 0.046227206 -0.09195695 0.047255423 -0.016098887 -0.06979594 0.03566813 -0.07731944 -0.056382325 0.15046428 0.1935037 -0.008909965 -0.07908374 0.23048787 0.08890577 0.034899704 -0.12047999 0.07953843 0.043223616 0.053207252 0.12122098 0.0834146 0.022700856 -0.043097854 -0.1346726 -0.031808805 -0.17426428 0.0747184 -0.1680037 -0.25061172 -0.059118405 0.11438203 -0.037580192 -0.09410921 -0.05152957 0.01686426 -0.09424724 -0.2583164 -0.19396558 0.043471847 -0.18349585 -0.13929015 -0.09306857 0.12743402 0.09988428 0.089447044 -0.09000638 -0.02555569 0.07835206 0.15871261 -0.034596488 -0.10152955 -0.09845245 -0.059685986 0.06205225 -0.29100883 -0.003955968 0.104238644 -0.102106385 0.24198663 -0.17241348 -0.04827219 -0.04828409 0.03786189 0.100669615 0.034028504 0.19152264 -0.1919365 -0.08362012 -0.07235203 0.05938877 0.05354886 0.011202241 -0.015191598 -0.022930162 -0.043768503 0.11825116 0.18038003 0.2239117 0.1717523 0.15357275 -0.025020683 -0.07285507 -0.024516236 -0.0021858758 0.018545644 0.018207852 0.0918654 0.11552779 0.29047045 -0.106421135 -0.15012471 0.14056501 0.18592621 0.013886313 0.0055577084 0.16690964 -0.019629454 0.22659704 0.033376824 -0.08546101 0.113583244 0.26337266 -0.13539821 0.18307093 0.07162536 0.20868887 -0.01653735 -0.03080683 0.10558271 -0.035163827 -0.042872895 -0.1441385 -0.13475768
花 -0.10415269 0.18899602 -0.2256237 -0.1939214 -0.027475102 -0.14564107 -0.23032756 0.018928729 -0.014029231 -0.45247605 0.2684025 0.24831599 -0.2559114 0.16779411 -0.1088507 0.056195535 -0.11555065 0.11482841 -0.2269303 -0.12726888 -0.15050867 -0.16283762 -0.16087927 -0.12561859 -0.05787968 -0.28216642 0.061921593 0.2009378 0.031572547 0.029927611 0.08800533 -0.023455895 -0.09482104 0.13848867 0.35252297 -0.09422944 0.25448844 -0.04651797 0.17141683 0.039729416 -0.0959729 -0.107498504 0.14812313 -0.09205012 0.044271093 0.024752744 -0.14738879 -0.037718717 0.11467829 -0.17381422 0.07867084 -0.09551752 -0.012311252 -0.095566094 -0.028392816 0.14778091 -0.060726825 0.05038978 -0.2327016 0.36604786 0.016765095 0.08193246 0.1264652 -0.11079144 -0.1774836 -0.20910218 0.050417732 -0.11254431 -0.06339595 -0.03840619 -0.018087573 -0.04229483 0.08248608 -0.12487998 -0.051253572 0.3125524 0.047246505 -0.16636156 0.032287102 -0.12299658 0.1493617 -0.079273425 0.14983614 0.3528568 0.2388895 -0.03901939 0.0100644445 0.08989758 -0.2704034 -0.12981555 0.17458051 0.22538514 0.06355222 0.15702122 0.008855551 0.19735305 0.06084402 0.20289953 0.008485882 0.23670611 -0.10266648 0.034796767 0.0038023712 0.013142463 -0.042835012 0.05140493 -0.036902007 -0.20544627 -2.3718989e-05 -0.04004636 -0.06538402 0.060406342 0.18332559 0.20578523 -0.20045003 -0.038593903 -0.042824432 0.065419815 0.11830117 -0.07850898 -0.06343926 0.3010871 0.18251555 0.13424844 -0.11743315 -0.12208523 0.08780708 0.06384308
么 -0.14989327 -0.07884569 -0.23316921 -0.09720078 -0.057109084 0.32191676 -0.21188039 0.18711883 -0.041746974 -0.20313929 -0.038845442 0.0650984 -0.44982967 0.14723617 0.09786664 -0.08365989 -0.10479022 0.58586496 0.06363582 -0.12319142 0.2618378 0.021952724 -0.112890325 0.26862925 0.31249288 0.008021838 0.23262179 0.13919419 0.1368331 0.07256662 0.13165185 0.124743134 0.022136906 -0.10791831 -0.15207985 -0.044715438 -0.115044646 0.2101305 0.10851599 -0.03442648 -0.34353945 -0.039267693 0.10038977 -0.020613676 -0.08781499 0.11659547 -0.28777158 0.004254066 -0.27490145 0.07469222 -0.04490462 0.17768309 -0.13243209 0.098144315 -0.053194985 0.1029506 -0.19462954 -0.07207542 -0.025263188 0.12258648 -0.262552 0.43788502 0.04591748 0.009758281 -0.31995863 -0.036346797 -0.017488284 -0.11988741 -0.14771649 3.3518445e-06 -0.09324652 -0.16991569 -0.3569562 0.2891082 -0.062154226 0.15463245 0.113738194 -0.040332746 0.24116845 -0.2298787 -0.09917998 -0.16080157 0.041262824 0.15762895 0.06826417 -0.2837336 -0.026603423 0.016294187 0.047382932 -0.1145795 0.20751913 -0.10666274 0.145432 0.08976868 -0.11434337 -0.06802518 -0.32356396 -0.002771392 0.15397884 0.102912255 -0.12499635 0.10198426 -0.039622862 0.5198079 -0.12783775 -0.037031632 0.18286496 -0.1208118 0.024885675 -0.010313371 0.051833246 -0.1572993 0.22620964 -0.09094419 0.08833939 0.11941014 0.11739642 -0.09291814 -0.29274327 -0.16781755 0.14575952 0.19500247 0.10823144 0.29210535 0.13520554 0.051188678 -0.21627922 0.035343215
还 -0.019780658 0.09635904 0.124063335 0.101133525 -0.029816682 -0.09101573 -0.13998659 0.03666083 0.12529363 -0.07637827 0.121942945 -0.060428526 -0.04015915 -0.2054296 0.07200781 0.04637193 -0.03501639 0.055701975 -0.17999613 0.13783379 -0.1034133 -0.11070532 0.1578258 -0.048688177 -0.16511497 -0.15465914 -0.065507114 0.10401355 0.18474333 0.06328241 0.0032849584 0.1715168 0.13959216 0.055454068 0.07635029 0.11158729 0.092334665 -0.04435586 -0.11160359 -0.23524259 -0.027063383 0.1093684 -0.1827422 0.028649474 0.14883998 -0.01736169 -0.17324017 -0.0044562067 0.33724898 0.22448038 0.06929438 -0.1327667 0.1166854 0.17233123 -0.12186404 0.15425394 -0.09787641 0.1995851 -0.28629664 0.024571924 -0.39769217 0.08085962 0.18711346 0.23207468 -0.055862833 0.14706905 -0.01528067 -0.115662456 0.033002783 -0.16433342 0.012518879 -0.101325184 -0.069415405 -0.038027395 -0.21375482 0.07327334 -0.005996809 -0.046311446 0.095700875 -0.15023741 0.25184512 -0.069943056 0.075257 -0.15572186 0.118210815 0.013201791 0.18147731 -0.32861745 -0.30299395 0.013896528 -0.091038756 -0.052762 -0.19423623 0.34891993 -0.2766665 -0.16090009 -0.22738387 0.19544095 -0.35391295 0.009697545 -0.10573865 0.23746915 0.24431947 0.11618767 -0.16799435 -0.23201036 0.00016951129 -0.013155275 0.123076856 0.08674482 0.07406483 -0.18042195 -0.014458737 -0.021407418 0.09521017 -0.18386538 0.23252977 -0.28473255 -0.16799729 -0.21903288 0.08111679 0.06994478 0.044538736 0.1870745 -0.004817081 -0.046686437 -0.27813616 0.20720138
借 0.2927346 -0.1003547 0.18303242 -0.34363833 -0.19232178 0.07616416 -0.11595717 0.21856898 0.093233645 -0.22390893 0.1901134 0.02680906 -0.17271984 -0.042252135 -0.12547947 0.063518606 0.03418606 0.08560379 -0.10226206 -0.19645385 -0.09665922 -0.09171708 0.38918057 -0.021429539 -0.24107331 -0.26892018 -0.083185464 0.1886347 -0.045321215 0.12583165 -0.009231815 0.1154588 -0.020158606 0.050756898 0.14382203 0.17413527 0.23334582 -0.10454702 -0.07004872 0.056608226 -0.4708761 0.110248365 0.16123097 0.12524883 0.17672552 -0.2032293 -0.089169204 -0.11399571 0.16792648 -0.04088968 0.05061312 0.18051532 0.13118933 -0.094362915 -0.19793594 0.40192124 -0.31868103 0.1194939 -0.098838255 0.2991117 -0.13379411 -0.02146232 -0.05379633 -0.03858727 -0.03568583 -0.19242282 0.334827 -0.09530507 -0.32147038 0.093342766 0.061119035 -0.002148757 -0.05358785 -0.5214412 -0.11590412 0.4552258 -0.015397708 -0.11817987 0.12876539 0.021481551 0.17774168 0.13837928 -0.13664953 0.045430493 0.2606717 0.036752235 -0.02836205 -0.14379087 -0.20291199 -0.2543863 0.21860448 0.061974697 -0.08287514 0.51627517 -0.22820373 -0.12216591 -0.2076226 0.004254384 0.032488577 0.24765693 -0.13665833 0.12476631 -0.025352739 0.38070372 -0.020448811 -0.081632815 0.2168454 -0.08652605 -0.039121006 -0.15219104 -0.24378036 -0.48757547 0.03457104 -0.17116265 -0.0043658796 0.122223526 -0.038222227 -0.2515155 0.21122678 0.10715696 0.14367919 0.002575496 -0.08169485 0.10119672 -0.18406498 -0.101247534 0.07839287 0.07382684
我 -0.05119784 0.027926754 -0.12519011 -0.05911635 -0.2757355 -0.17841333 -0.27257493 0.060166836 0.09582564 -0.35875544 0.23800924 0.015504698 -0.24612112 0.12979099 0.05089228 0.19102427 0.016640766 0.19625756 0.13603926 -0.06702772 -0.042477377 0.28628704 -0.11749457 -0.04683031 0.06357935 -0.21790011 0.002886302 0.08330716 0.25541717 0.06385822 0.05150297 0.18373424 -0.14984201 -0.118646346 -0.0657964 0.17867169 0.016183943 -0.061996274 -0.025049351 0.067666404 0.037567157 0.07478812 0.06989524 -0.002194745 -0.14691442 -0.09826951 -0.04896886 -0.053202793 -0.12464741 -0.08767357 0.014449459 -0.08304626 0.019101767 -0.06956657 -0.09466048 -0.07056617 -0.11086222 0.0861299 0.10913588 0.12234483 0.029310877 -0.039711174 0.21963078 -0.0069345497 -0.17883591 -0.03737641 0.010854273 0.035024133 0.13933675 -0.045210186 0.12371984 -0.004402125 -0.0064541157 0.14116853 0.018198546 -0.043291543 -0.14023376 0.06039427 0.098519035 -0.09330228 0.21314189 -0.058687687 -0.04687671 -0.07179979 0.16287415 -0.16832314 0.061109543 -0.13862325 0.032709833 0.15532464 -0.08291638 0.014488631 0.241638 0.30851546 -0.14611675 0.028810633 -0.047728725 0.12826149 -0.1995407 -0.21054351 0.010214065 0.31918797 0.09032032 0.22492196 -0.15311253 -0.00833652 -0.0014480253 0.023987308 -0.0705111 -0.0740915 0.20501757 0.00818715 0.08005913 -0.045818403 0.08394517 0.00088664 0.2315427 -0.18797235 0.007905368 0.11277325 0.1847624 0.04169082 0.12039887 -0.015803466 0.14980946 -0.031853966 -0.06902454 0.036740795
款 0.25049096 -0.002092313 -0.15454939 -0.15840319 -0.0681982 0.097603485 -0.017031847 0.10924835 -0.040665295 -0.23827815 -0.0072446987 0.12881036 -0.05501399 -0.33477604 0.21623416 0.29018256 -0.028672673 0.2768618 -0.058389656 0.021130031 -0.15766369 -0.05324862 -0.15156376 -0.25740454 -0.036721982 -0.18646137 0.018314349 0.36872238 -0.02010851 -0.023544779 0.12039537 0.40163454 0.20158179 -0.24548145 -0.00491576 -0.009388984 0.007640989 0.017311567 -0.09588578 -0.20222582 -0.13955402 0.101472944 -0.28319556 -0.14697564 0.118514724 -0.13581167 -0.091545805 0.20149106 0.16991274 0.12740527 -0.14954504 -0.118123315 -0.03802187 -0.027170138 0.09652406 0.14491852 -0.096964456 0.26671338 -0.010568917 -0.0076193633 -0.18747309 -0.0004977088 -0.059934285 0.1619542 -0.037249114 0.013169155 -0.39902496 -0.01871365 -0.07455823 -0.18134083 -0.07848735 -0.17512688 0.2770098 0.25040242 -0.18968824 0.15950233 0.10883435 -0.011826195 0.1081563 -0.17669299 -0.012539536 0.28313476 0.08177981 -0.03080546 0.0016258947 0.10781338 0.13455051 -0.062123615 -0.10782192 -0.1744175 -0.015398917 0.047241654 -0.26874533 0.24752666 0.041130327 0.013234761 -0.15558077 0.20478424 -0.0859078 0.13495125 0.051283523 0.17582087 0.14945371 0.102418855 -0.035765477 0.029386768 0.17410006 0.34862298 0.109898016 0.07075917 0.06098194 0.06632267 0.04459659 -0.062187728 -0.23953612 -0.22918169 0.39550376 -0.065132596 -0.39309946 -0.061210763 -0.097046785 0.32476333 -0.03835087 0.16459757 -0.3193235 -0.109371446 0.079809554 0.107403174
用 -0.13077143 0.2213062 -0.005689919 -0.10955149 0.062116656 -0.07185628 -0.1494211 0.11799872 0.2388303 -0.29111242 -0.0860373 0.10825299 -0.011659397 0.017667236 -0.11921157 0.063755386 0.22641213 -0.054616313 -0.09252554 0.011998287 -0.028912019 -0.103698075 -0.37454352 -0.19664007 0.0261916 0.1378554 0.06079191 0.5312119 -0.058028534 0.12361123 -0.069389895 0.09490258 -0.12143497 0.04469892 0.17799188 -0.040266432 -0.05756626 0.34802714 0.24859479 0.08475023 -0.22444 0.117038645 -0.13487163 -0.018761184 -0.2547569 0.03167081 -0.22355525 -0.11568941 -0.22535942 0.019788567 0.114228204 -0.09754888 -0.045279298 0.055521067 -0.13942538 -0.18134119 -0.18486309 0.24350469 -0.2527425 -0.09744798 -0.106761575 -0.3178351 -0.013019857 0.003828129 -0.15529586 -0.26617694 -0.07429922 0.13819751 0.21484198 0.043163598 0.32634112 0.18178162 0.036451403 0.04869409 -0.060150817 0.03118511 0.11401445 -0.22314835 -0.22795486 -0.18686512 0.03769723 -0.07471191 -0.09033926 -0.07177548 0.044849798 0.03909857 -0.18168114 0.09273375 0.023148108 -0.25652286 0.18410486 0.18055671 0.17184679 -0.01740421 -0.0010898735 -0.12406303 0.04007883 0.077769294 -0.36828005 -0.11479044 0.08722041 0.056453142 -0.03642365 0.16513371 -0.17684166 0.031003937 -0.10848442 0.0657563 -0.0076070544 0.35474548 -0.08030875 -0.011938737 0.40276286 -0.043986235 0.065006174 -0.18101925 -0.06799745 0.120304815 0.0651669 -0.07863044 -0.08609454 0.09300631 0.15870517 0.010693435 0.20783302 -0.040157653 0.096618004 -0.27501515
不 0.10940378 0.08184306 -0.071100436 -0.33492047 -0.01908867 -0.1469362 -0.3034365 -0.053796697 0.098535225 -0.21257257 0.30981228 -0.15500431 -0.016139178 0.22786848 0.046635147 -0.057669472 -0.28419438 -0.01279132 -0.072982565 -0.138336 -0.11611765 0.27881745 -0.2228386 -0.036283158 0.3590175 -0.29278955 -0.27739123 0.24962585 0.07599995 0.13517395 0.062799074 0.09632043 -0.13365129 0.056570925 0.23224208 0.07468931 -0.11389925 0.025314266 0.22438847 0.09967445 -0.08663035 -0.07549704 -0.07082735 -0.1110272 0.043283757 0.184213 0.17515415 0.038731262 -0.08020994 0.0743949 -0.0032008244 -0.039924126 -0.22023258 -0.06512869 0.04131792 -0.100961514 -0.16074035 0.2112484 0.3574129 -0.1894545 -0.096385464 -0.28767756 0.16766192 -0.11518787 0.044986986 0.0858209 0.048756488 -0.003951262 0.0884234 -0.059119023 -0.08852922 0.012932502 -0.21383263 0.17658044 -0.07391544 0.32728642 0.36261752 -0.11497407 -0.06911845 -0.055606015 -0.13884974 -0.08080538 0.07153596 0.14308463 0.017063957 -0.13207999 -0.011567834 -0.24545534 0.145424 -0.18328325 0.35372847 -0.004144601 -0.0773308 0.16155759 -0.026341539 -0.028865563 -0.021656033 -0.11131466 -0.30858102 0.056437183 -0.07449305 0.102868624 -0.09502589 0.30545202 -0.0039200196 0.08231192 -0.025676757 -0.11390393 -0.20103689 -0.06710001 0.08358762 0.00089211296 0.18514736 -0.12284829 0.14654766 -0.0010586301 0.17928004 -0.15128537 -0.09915936 -0.09937729 -0.16431196 -0.19618313 0.09304513 -0.02107189 -0.01644876 -0.23098804 -0.09671465 0.07755337
怎 0.13936204 0.14570586 0.404106 -0.080132514 -0.14139625 -0.37336367 -0.21046737 0.4392181 0.15700786 -0.395717 0.27856106 0.2392823 -0.46622586 0.27513832 0.021729229 0.0075194975 -0.20339875 0.21688995 0.15180488 -0.20903285 -0.21290067 0.0117577175 -0.11367348 0.384991 -0.28515613 0.09090462 0.047709066 0.04782845 0.14865445 0.29039276 0.19649419 0.13916633 -0.2462911 0.050078772 -0.13440473 -0.059348244 0.08556619 -0.0677911 -0.04294607 -0.05281966 -0.17226136 0.08556958 -0.15877445 -0.443004 -0.19277443 0.05346906 0.2609813 -0.20529856 0.24980496 0.015913624 -0.32732132 0.04720864 -0.04052115 0.1210577 0.2179625 -0.18740228 0.017723711 -0.074770644 -0.03016372 0.11033249 -0.06777421 0.14815146 -0.2347694 -0.18457071 -0.27366 0.10581278 -0.09829983 -0.090037465 -0.09133172 -0.30038613 -0.29089993 0.10825259 -0.099515766 0.24187028 -0.32591113 0.101284884 0.31272465 -0.101504885 -0.25971118 0.17215998 -0.08894891 0.2848651 0.09267426 -0.023756515 0.14000519 0.17117788 0.0059643653 0.23493333 0.059709687 0.12506564 0.0676022 -0.30243626 0.2490381 0.2484788 -0.19059254 0.05056579 0.055921845 -0.21169244 -0.0019034308 -0.04556219 0.08817955 -0.30249527 0.109156266 -0.1765794 0.06956397 -0.34149384 0.13326968 0.043358162 0.1809595 0.38825056 -0.1936485 -0.12221179 0.061724924 -0.5003344 -0.008218613 0.19967712 0.35194543 0.27555338 0.058283262 -0.14133503 -0.21016216 -0.079189114 0.1654778 0.18966678 0.14137058 0.06558643 -0.00041516783 0.3327995
吗 0.10864436 0.12503497 0.061164364 -0.117798954 -0.062686995 -0.21514511 -0.07228273 0.019239143 0.2793814 -0.09740294 0.5680222 -0.25516692 -0.4697099 -0.019332614 -0.06242783 -0.1838264 -0.069209926 0.130265 -0.13997641 -0.2434223 0.2716255 -0.15865904 0.03953682 0.17107314 0.13044962 0.024527337 0.1943285 0.1461514 -0.18507655 -0.08232195 -0.0946859 0.116162814 -0.12437817 0.33556202 -0.13975991 -0.03825964 -0.22195777 0.1330431 0.41404912 -0.49296463 -0.3814262 0.27301854 -0.23118117 -0.14439647 -0.39206746 0.08861488 -0.18657097 0.035253108 0.20785163 0.19437674 -0.10013748 0.0077234246 -0.1898986 0.17194332 -0.22993287 -0.057511006 -0.22906631 0.03613768 -0.171192 -0.01349603 -0.24891628 -0.108984 -0.037910942 -0.25247028 -0.18476845 -0.025689425 -0.23741627 -0.21884513 -0.2654221 -0.08889212 -0.10262804 -0.12439672 -0.19894725 -0.17861432 -0.39820158 0.20650408 0.2795366 -0.20408228 0.09471507 -0.14024812 -0.16653065 -0.09899897 -0.14893794 0.122907765 0.034013093 -0.00958022 -0.079904266 -0.004520476 0.4432502 -0.041534677 -0.059826937 0.011572701 -0.123951286 0.13509794 -0.04659433 0.0562636 -0.13135858 -0.35618597 -0.30884323 0.43670115 -0.087016284 -0.19182023 0.48805788 0.0854654 0.04484009 0.25820485 -0.19071573 0.41767457 -0.035145313 0.44052583 -0.13381052 0.25493473 0.0842301 0.22826588 -0.21485822 -0.020655345 -0.1076091 0.05802603 0.010510718 0.00018927355 -0.12917925 -0.16630046 0.019726727 0.11442704 -0.14951418 -0.096572675 -0.056891523 0.25022697
什 -0.122288235 0.039756093 0.09014818 -0.43185318 -0.5657745 -0.42747343 -0.18460803 0.2262849 -0.0040434278 -0.12825072 0.09355911 0.10830585 -0.14392902 0.089874566 0.16347918 0.080998085 -0.33002627 0.15776712 0.016588807 -0.16997194 -0.09391824 -0.08701223 -0.5151372 0.58207405 -0.026760975 0.024364606 -0.17827372 -0.10431725 0.18140148 -0.03305374 0.0076545365 0.34183058 0.12215342 -0.13313189 -0.19156915 -0.016701238 -0.08905687 -0.12599067 0.16741952 0.15406781 -0.037518818 0.2235468 -0.28997135 -0.05986016 0.009825512 -0.054212507 -0.040472545 -0.3323718 0.48075598 0.12292812 -0.00069174636 0.17002045 0.18735567 -0.16171478 0.16194995 0.0014522034 -0.45550328 -0.18565804 -0.057737827 -0.13202772 0.13295533 0.16751944 -0.09392773 -0.23364604 -0.11304888 -0.019320564 -0.0043381783 0.016792934 0.09125301 -0.062211603 0.3102231 -0.12269861 -0.053913157 0.22132938 -0.04743874 -0.12770592 -0.13628015 -0.04291014 0.31919372 -0.024571713 -0.14638591 0.0019142139 -0.08012199 0.09580122 0.021148622 -0.5615435 0.056469966 0.07959538 0.22775127 0.04319865 -0.15110771 -0.05871015 0.14817661 0.5164344 0.19736768 0.015155474 -0.03108416 0.23612267 -0.3949095 0.17766757 -0.0029635883 0.19830684 -0.29834145 -0.16522275 -0.18258935 -0.45426556 0.2928703 0.17016834 0.117118515 0.38541064 -0.50133044 -0.1530537 0.17900257 -0.16011591 0.03397182 -0.4243384 0.043342404 0.14885764 0.071675695 0.06040139 -0.07405739 -0.08734926 0.3654007 0.24586813 0.06018993 -0.18795611 0.085530765 -0.044118173
是 0.019695476 -0.08408617 0.098953485 -0.043525856 -0.24924676 0.1430503 -0.12983301 0.024733536 0.0070854933 -0.24572927 0.20053594 0.040207382 -0.2782242 -0.032012314 -0.087180875 0.18018405 -0.053936493 0.24624752 -0.096413136 -0.10533061 -0.08854929 -0.08958653 -0.09414906 0.097994536 -0.11884342 -0.0589686 0.029449781 0.19938827 -0.04283402 0.16561843 0.20830145 -0.19908012 0.42206177 -0.04063251 0.20634681 0.033346258 0.17292851 -0.18083636 -0.122134864 -0.06361124 -0.13830885 0.07754545 -0.15289217 -0.083247125 -0.039276253 0.06586107 -0.12294254 -0.10524753 0.05849366 -0.10433368 -0.011409271 -0.04315862 0.14836119 0.2674914 -0.19045326 -0.03886121 -0.19071276 0.18902293 -0.050270963 -0.08501383 0.19476162 0.038935002 0.14501731 -0.0955712 0.27790272 0.09412779 -0.23735262 0.032248802 0.0502763 -0.008715447 0.061616216 0.12742893 -0.13536 -0.073514946 -0.06492404 -0.10628517 0.12241275 0.12513956 0.11480379 -0.23729587 0.1755109 -0.044473685 0.046659518 0.19530164 -0.19859748 0.095523074 -0.11761178 -0.024611788 0.17233963 0.041997 0.09705018 0.115941875 0.2884725 0.041326977 -0.2207963 0.13031352 -0.08761895 0.12007046 -0.13292505 0.057392057 -0.2966953 0.26623404 0.30453742 -0.08883088 -0.078992106 -0.17972483 0.09250224 0.039717417 -0.31267437 0.0574252 -0.0066469153 0.053003907 0.19471566 0.11700904 -0.003805806 0.07029655 0.1943682 -0.11724029 -0.12383262 -0.018191453 0.08222194 0.064419724 0.10453915 0.16093048 0.10191171 -0.015224748 0.10727275 0.03210832
期 0.21565647 -0.22781642 0.32415605 -0.25327617 0.13291518 0.061273538 -0.1054542 0.101839334 0.0831046 -0.4991375 0.15475774 -0.022254277 0.011578722 0.023973418 0.108797334 -0.08369609 0.11950055 -0.09505606 -0.12672888 -0.093852185 -0.21086708 0.020303989 0.40284765 -0.13397373 -0.24640971 -0.105497934 0.16304925 0.59141004 0.09369033 0.14188354 -0.1936662 0.5102729 0.27941 0.39615962 0.034365583 -0.18478638 0.0838112 -0.14981392 0.12351914 -0.1464706 -0.4559646 0.11626304 -0.342082 0.13887316 0.3674768 0.13026015 -0.14793189 0.32956722 0.019793648 0.06033033 -0.20300438 -0.2187793 0.39399487 0.07487198 -0.08205072 0.09530885 -0.25783432 -0.23628469 -0.047615897 -0.15339206 0.07335956 -0.23647939 -0.020375159 0.12662046 -0.3925256 0.026042799 -0.24769135 -0.18354444 0.1907335 -0.29485938 -0.1464439 -0.0075628846 0.06144309 0.09144712 -0.23417312 -0.047174428 -0.21779546 -0.2105964 0.2712539 -0.2016694 0.06731867 -0.14673863 0.20364538 -0.42454728 -0.010218578 0.068436645 0.3838749 0.0010391794 -0.13311082 -0.04100761 -0.23362713 0.060092255 -0.09811781 0.007518205 -0.12610774 -0.3168091 -0.5028276 0.042360045 0.020635076 0.08030257 -0.016120523 -0.16603793 0.08023987 -0.061151523 -0.32883063 0.09714048 0.15565105 0.06399361 0.10965497 -0.07232295 0.033671677 0.008847638 0.22356695 0.04626505 0.24263705 0.0048296824 -0.0040832777 -0.21685074 0.03023985 -0.48032534 0.2657049 -0.20854785 0.05207404 -0.04851802 -0.03790148 -0.24231076 -0.025335032 -0.24676028
额 0.07573361 -0.09306347 -0.05032838 0.17836863 0.27511498 -0.30247128 0.0004134135 0.37639838 -0.2899273 -0.47062 -0.08870019 -0.045968026 0.22493215 -0.055741124 0.30808848 0.02258828 0.032122243 0.11062937 0.23290826 -0.09894384 -0.12752311 -0.2880289 -0.08785185 0.50788724 -0.16710508 0.02736958 0.04638209 0.3060339 -0.14046338 0.3606212 -0.02118119 0.23743302 0.04289706 0.12204882 0.22716327 0.41333458 0.29895383 -0.13820034 -0.07829883 -0.15374178 0.1374129 0.06677836 -0.21026689 0.15682475 0.27413645 -0.10723704 0.056246728 0.16212714 0.0859827 0.15439533 -0.35853785 0.33404157 -0.061016705 0.110535726 -0.21246196 -0.08849087 -0.35086882 0.2185817 -0.049673032 0.23041387 0.23127516 0.108263664 0.27482477 0.07655269 -0.2685195 -0.13313918 0.0836865 -0.42467707 -0.06371089 0.27443016 0.22723235 0.25729072 -0.007575234 0.120713115 -0.23522012 0.31861952 0.19876984 -0.23141466 0.10521985 0.12333783 0.14342031 -0.28295583 0.13498168 -0.2532596 0.15457547 -0.14810331 0.18260269 -0.0682902 0.20313825 0.102715954 0.30542287 0.09878866 0.27369687 0.024487948 0.07399803 -0.023943048 -0.10476891 -0.008464609 -0.15340568 0.04837963 -0.34734312 0.13047194 -0.10921102 0.15686671 -0.44801152 0.054067403 -0.08518286 -0.07224503 -0.019878358 0.2736337 -0.29304707 0.030100442 -0.040219042 -0.026951 -0.20588927 -0.21647818 0.07236181 -0.53649133 -0.167295 0.38162088 0.016070131 0.29052514 -0.5118622 0.10274597 0.053518802 0.09396489 -0.12992758 0.28314584
能 0.11815815 0.1614316 -0.04034521 -0.06857733 -0.34961843 0.02044746 -0.028356072 -0.027406456 0.20601869 -0.309897 0.18421595 0.061556377 0.11468349 -0.06754745 -0.02522079 -0.026247673 -0.034058753 0.15835115 0.0215322 -0.13699958 -0.1884382 0.08680093 -0.024225675 0.3194045 0.1840651 -0.1497904 0.028843738 0.37146175 0.23469731 -0.1283882 -0.12136759 0.24560428 -0.10251402 0.00062375696 -0.044264853 -0.030516004 0.07737747 0.3203664 0.031128198 -0.24663764 -0.263563 -0.2229716 -0.25461817 -0.39781016 -0.05335636 -0.124502085 -0.037280098 0.1229239 -0.105033085 -0.3385093 0.067681536 0.058476187 -0.18555741 -0.027069634 -0.06718497 0.008088307 -0.16997367 0.0109632695 0.052299302 0.14616227 0.015951844 -0.26054364 0.10446993 0.13039729 -0.008737382 -0.02664314 -0.15035667 -0.09668989 0.053012773 -0.2151775 0.016263084 0.24570101 0.019539319 0.013775807 -0.15965964 -0.16934346 -0.0066080447 -0.19504844 -0.12754369 -0.35564223 0.20856076 0.28213942 -0.23435113 -0.085876286 0.26822865 -0.24753362 -0.09576951 0.32003456 -0.16371322 -0.06493606 0.16941875 -0.09852679 0.07516941 0.17952815 0.07145776 0.013633294 0.045499906 -0.19529937 0.18628496 -0.014851744 -0.1111407 0.30017033 0.14362468 0.3005504 -0.4709941 -0.30615586 0.22702807 -0.15905428 -0.46765596 0.16824955 -0.059004165 -0.09718195 -0.2907449 0.0053805397 0.18296221 0.1595105 -0.1420953 -0.14518328 -0.048182353 -0.09174953 -0.29671147 0.095328294 0.13326897 0.014481778 0.12538372 -0.12957805 -0.010520252 -0.050010707
可 0.05241363 0.1585212 -0.07257046 0.041518692 -0.13158508 -0.036657624 0.1281284 0.22418156 0.40175098 -0.07036056 0.30113068 -0.077506974 -0.3326988 -0.3006976 0.21711504 0.09620514 0.14963174 -0.06833076 -0.013681907 -0.38416955 -0.11103101 -0.20199852 0.16799349 -0.15487109 -0.33525988 0.08053027 -0.15456575 0.39376935 0.07507033 0.026939014 -0.19227357 0.23135325 -0.22320169 0.37274492 -0.055025775 -0.19533241 0.13144651 0.28427276 0.062231403 -0.27905586 -0.14700636 -0.045958072 -0.14959715 -0.29986864 -0.14727584 -0.101315096 0.05644518 0.36558065 0.048648745 -0.04159209 -0.037261307 0.057041146 -0.084139705 -0.19421217 -0.23868296 -0.15075058 0.1381879 0.32995647 0.0517947 0.07049114 -0.14389123 -0.04757374 0.010380225 0.10611111 -0.09989966 0.27691722 -0.029141352 -0.047966085 -0.13899496 -0.16265988 -0.25379184 0.16276734 -0.10342138 -0.18283972 -0.26794067 -0.114859 -0.13232914 -0.06191848 0.108884946 -0.056403507 0.23309158 -0.19872962 -0.17424187 0.23214108 0.30749422 -0.126492 -0.44719023 0.41245657 -0.023425886 0.18776888 0.067462996 -0.31826082 -0.04988761 0.054963745 0.16614063 0.29878467 -0.08622703 0.0071645863 -0.028049873 0.046132073 0.13752991 0.09813186 0.2051975 0.21465236 -0.43927175 -0.1575728 -0.072106816 0.096886165 -0.19769597 0.29586753 -0.03769232 0.032303948 0.058905598 0.29797855 0.07073075 -0.25048232 -0.2584051 -0.09405817 0.0033095113 0.092101276 0.011817263 0.081741914 -0.074219584 0.04145556 -0.08177874 -0.058659844 0.04756816 -0.014886519
以 0.27952242 0.38988337 -0.10878834 -0.031800743 -0.13968292 -0.114367455 -0.0011174812 0.21820441 0.21448608 -0.3922305 0.5118653 -0.14032413 -0.11371076 -0.22898677 0.011342894 0.10092125 -0.24891314 0.036689073 -0.044010285 -0.2092473 -0.011524894 -0.11713181 -0.070111424 -0.1744024 -0.28363815 -0.079674125 -0.09207002 0.287124 0.1538976 -0.13359983 -0.42808014 -0.28276062 0.18123552 0.3910049 -0.27580073 -0.20318301 -0.029324336 0.30514637 -0.0402471 -0.29718235 -0.055051815 0.0005529756 -0.2828736 -0.3636279 -0.37949798 0.19409046 -0.077902645 0.32156196 0.07477532 0.04618979 -0.20908892 0.25058925 -0.28241786 0.14526217 -0.29653063 -0.016795402 0.14176865 0.21941534 -0.15033759 0.057295065 -0.059213106 -0.22978008 0.044761844 0.15601556 -0.09495029 -0.10031559 -0.024678096 0.07142679 -0.08525215 -0.0266833 0.29899064 0.2732849 0.13531622 -0.12541227 -0.16614701 -0.17056534 -0.21158327 -0.13329533 -0.257458 -0.34348312 0.15215541 0.0002496091 0.020930022 -0.044380017 0.16431297 -0.07246314 0.09098265 0.16966572 0.10253678 -0.15058352 0.0041979346 -0.13395502 -0.057581216 0.03475456 0.0055112317 0.007932736 0.14409524 0.033505443 0.020238208 0.35150722 -0.30872482 -0.042049117 0.13002072 0.46775484 -0.12811817 -0.09421887 0.35992634 -0.02390711 -0.18100913 0.12554693 0.06932559 -0.034503967 -0.0037378885 0.07894625 0.16141541 -0.07528076 -0.207191 -0.0054100906 0.17780611 0.18963633 -0.10881463 -0.10558358 -0.08353794 -0.035834197 -0.10791812 -0.36004722 -0.030940883 0.04840402
有 -0.14950135 -0.0042211274 0.13866039 0.16262965 -0.27207595 -0.06700976 -0.16239747 0.09409974 0.0015393794 -0.09024774 -0.19796081 0.20683092 -0.38529238 -0.03693616 0.14366071 -0.13027139 -0.13570963 0.08069544 0.1289831 0.02661404 -0.22371787 -0.20225659 -0.03239746 -0.016272726 0.047991384 -0.28923345 -0.1739548 0.14129639 0.030946098 -0.40566787 0.17042528 0.21867424 0.1763895 -0.08696772 -0.053224124 0.22567722 -0.104724444 0.0152543755 -0.048273332 0.053330697 -0.34773758 0.08908146 0.0729036 0.25146264 0.1722477 -0.12118833 -0.11110713 0.28718242 0.20646614 0.11244467 0.028776428 0.074912935 -0.0080987625 -0.018556625 0.11009772 -0.06973373 -0.09897546 -0.12865062 -0.034498625 -0.18991631 0.24296331 -0.019067284 0.103454664 -0.069433615 -0.06069175 -0.13213114 -0.17798084 0.1564738 0.06703327 0.20603259 0.16206576 0.30742627 0.09190617 -0.07587877 -0.49269113 -0.10665185 -0.08820396 -0.05208226 0.15835518 -0.07529591 0.18095309 -0.06205607 0.02960372 -0.08353364 0.16539721 0.02613324 0.14477396 -0.12711209 0.20555611 -0.13662033 0.3351698 0.28007692 -0.09139152 -0.0011483436 -0.1593456 0.13120833 -0.4291439 -0.055784635 -0.041618828 -0.042749327 0.13203529 -0.0015024644 0.13169806 0.08388601 -0.17550685 0.09532934 0.18746054 -0.077880904 -0.2035623 0.13567995 -0.12177043 -0.15395021 0.3459334 -0.1603512 -0.100117505 0.05755657 0.35031408 0.022881381 0.29535526 -0.03796447 0.021490164 0.2586621 0.05966574 0.23705259 -0.06605825 -0.201006 -0.08576305 0.076202
付 -0.18881878 -0.3296866 0.104044795 0.32087806 -0.13363409 -0.41920328 -0.24847236 -0.08365949 0.003763434 -0.25652122 0.039330266 -0.48774314 0.12664613 0.11733597 -0.11265948 0.19559443 0.036924645 0.07640277 -0.13236076 -0.1369152 -0.23654953 -0.15485881 -0.021655837 -0.30949545 0.16173455 -0.23463987 0.11107885 0.1388007 0.20292161 0.051353395 -0.06946035 0.08309342 -0.20760347 0.33767605 0.19875574 -0.007118734 0.11821261 0.16311817 0.049798813 0.08009443 0.106342115 -0.104169466 -0.20062824 -0.12970188 -0.17904198 -0.11909524 -0.18114582 0.12352841 0.040396716 -0.15472914 0.13306701 -0.010769186 0.022489093 0.09903633 -0.17079718 -0.22773805 0.1212862 0.080834195 -0.352439 0.04373704 -0.23784995 0.07695109 0.12492035 -0.02822643 0.10080348 -0.16785441 -0.046214208 0.08144967 0.14932364 -0.31897298 0.19330995 -0.10506929 -0.12521154 0.17768 -0.27193093 -0.04381065 -0.0018134026 -0.06588313 -0.16644828 -0.06142841 0.004772674 0.1296216 0.1703886 0.4488273 0.12557659 -0.28173837 -0.070362 -0.14377068 0.15719445 -0.114286445 0.049310315 -0.06503699 0.31914514 -0.14146054 -0.29707375 0.15445074 -0.117405206 0.0061704954 -0.33201373 0.17988619 0.029394189 0.06615808 -0.1391224 0.15455751 -0.092762664 -0.1162922 -0.09277478 -0.124209106 -0.09311778 0.16369998 0.031165624 -0.033692155 0.1474263 -0.017247556 -0.32214552 0.029523661 -0.072722726 -0.044485852 0.043308932 0.09018635 -0.011180795 0.31434315 0.19592397 0.095574535 -0.18911642 0.10656008 -0.21664585 -0.015082575
为 0.16326956 -0.19605188 0.06882439 -0.20172557 -0.2278882 -0.12619081 -0.4329612 0.36385995 0.32694948 0.013742525 0.13495295 0.060581297 -0.18472256 -0.08864527 -0.04896391 0.28136548 -0.36418325 -0.009447277 0.15319009 0.005284477 -0.28742462 0.076987065 -0.38927507 0.23504391 0.06554453 0.07743159 -0.01696357 0.22651164 0.358598 0.12478275 0.05427944 0.10134491 -0.070679165 0.08157742 -0.014919126 0.19100972 0.2380778 0.049879234 -0.1878193 0.15268199 -0.23008278 -0.37459138 0.25601414 -0.006132594 -0.08831283 -0.21482699 0.011323518 0.27686942 -0.016198691 0.039611343 0.0993619 0.11954341 0.09464643 0.106795676 0.27999026 -0.17875904 0.041572127 -0.055220492 -0.052267823 0.11331587 -0.035741508 0.09564517 0.1358759 0.12975362 -0.33358765 -0.1314154 -0.025311103 -0.3529597 0.36556083 -0.16788562 -0.29061693 -0.08110507 -0.31224862 -0.30439204 -0.02297814 -0.09368768 0.25520796 -0.008864676 -0.003449811 -0.07413828 0.14484632 0.00500983 -0.17796989 -0.4571047 0.122417614 -0.070150256 0.023327887 -0.15812398 0.07143484 -0.15073428 0.03492328 0.21639594 0.17492712 0.23027684 -0.12387019 0.32804775 -0.069126695 -0.20771286 -0.11191596 -0.10456356 0.064766504 0.10928393 -0.06353332 0.06083939 0.114686675 -0.21163018 0.058305122 0.05951828 0.07714406 0.275079 -0.04956183 0.2788917 0.2038747 0.11152219 -0.32089034 0.3801037 0.4009312 -0.10197135 -0.17054155 0.13452913 -0.118694514 -0.10748533 0.56834066 0.025313374 0.17099869 0.118393175 0.14352097 0.19226784
蚂 0.032765035 -0.13545796 0.20742847 -0.283057 -0.09856873 -0.0008923094 0.03370495 0.3380871 0.120431855 0.027778953 0.04075582 0.011610606 -0.15465724 0.0030306217 -0.04732505 0.1491264 -0.24526413 0.13191397 -0.20364073 -0.09628815 -0.05713646 -0.03716351 -0.0058211973 0.09592387 -0.23739107 -0.25524133 0.016953196 0.3100685 -0.23389423 0.065867595 -0.01866189 0.41449377 -0.09876908 0.13159414 0.14762852 0.2709723 -0.0402482 0.15529042 -0.18228413 0.030106828 -0.5679269 0.15830706 -0.22564155 -0.2247271 0.09922178 -0.053982865 -0.4017239 -0.12250412 -0.00038354084 -0.0042452677 -0.01783264 0.10825984 -0.15898381 -0.007229296 -0.13557829 0.17981522 0.06059236 0.011450968 0.11522512 0.28706348 -0.16355683 -0.039083652 0.08638895 0.14497499 -0.081963785 -0.10284891 0.20730384 -0.08105599 -0.22642058 0.0009038581 0.12063707 0.109482154 -0.04079209 -0.18694358 0.010772253 0.40815398 0.03388384 0.05927947 0.1855338 0.3277369 0.18709321 0.10988995 -0.05205876 -0.21579263 0.04494193 0.065818146 -0.12899962 -0.100478396 -0.0021195447 -0.26324466 0.05692103 -0.18927936 -0.037849035 0.4459064 -0.024372373 0.04560628 -0.083572686 -0.030591335 0.22658147 -0.036226142 0.13777201 0.020710863 0.07573906 0.27779168 -0.12645568 -0.061288584 0.20013599 0.14626817 0.056475464 -0.22511622 0.09097332 -0.24877648 0.16011481 -0.12687458 0.14447634 0.17521717 0.046477705 -0.33279124 0.20552689 0.3195526 0.15713136 -0.23284774 -0.21987234 0.1379002 -0.019697063 -0.051514264 -0.15687302 -0.03924441
蚁 0.49309677 0.018024731 0.15590599 -0.29170334 0.0042764246 0.07318378 -0.09993304 0.16494814 0.0785319 -0.1258168 0.017442463 0.040449545 -0.20711705 -0.1711465 0.0012823384 0.031149816 -0.06794174 -0.103424884 0.09422424 -0.2947199 0.07719895 0.043322023 0.21521375 -0.04497702 -0.0036918735 -0.16751738 0.063303344 0.141079 0.16623381 0.08747601 -0.21968347 0.07162201 -0.1133572 -0.09128556 -0.1380262 0.06384359 0.037417024 -0.12455847 -0.40069866 -0.06689239 -0.24253255 0.07147927 0.038905155 0.19058646 0.15044384 -0.22376479 -0.13254993 -0.06722849 0.09178422 -0.024816945 -0.011524255 -0.14227957 0.04410934 -0.048655238 -0.24165492 0.073306546 -0.3599876 0.0731557 -0.03310129 0.12989187 -0.048006296 -0.15999395 -0.22537845 0.1150121 -0.059881497 -0.13008116 0.20182234 -0.07968283 -0.065437935 -0.116214834 -0.18393213 0.064958096 -0.36832055 0.047956217 0.0902742 0.25224227 0.065459974 -0.1761589 0.07532145 0.02902548 0.1830046 0.036040023 -0.23193316 -0.1911722 0.26523632 -0.00013020432 -0.057753984 0.14009403 0.11917695 -0.2914841 0.26461026 0.07901519 -0.026280293 0.3301061 -0.101860814 -0.16077356 -0.037965294 -0.0014154429 -0.08048558 0.15930891 -0.189918 0.10277296 0.011246356 0.4330377 -0.20132743 -0.3144184 0.29110178 0.31056657 0.03604439 -0.06890421 0.115072876 -0.30790564 0.1803817 -0.05189562 -0.048248217 0.09302009 0.09118331 -0.1387082 0.23984842 0.14604393 0.2496219 -0.13431816 -0.16012707 0.16224712 -0.20636418 -0.018328603 0.08439372 0.28886217
分 -0.1995169 -0.14822091 0.29646087 -0.20577924 -0.014590811 -0.29108736 0.122927 0.33493719 0.020619461 -0.453115 0.055624213 -0.0006562578 -0.075501576 0.013468664 0.030955987 0.010443794 0.20593469 0.2740437 -0.08600212 -0.03601586 -0.03908221 -0.2743137 -0.06222752 0.16363053 0.073953606 -0.09760422 0.25684446 0.46804675 0.26237875 0.16827467 -0.12993048 0.19410498 -0.050467078 0.2754456 -0.02362555 -0.094765894 -0.011388665 0.034878813 0.055427846 -0.023456603 -0.5362296 0.2940041 0.066491365 0.13471216 0.19170964 -0.2624996 0.4787454 0.34647092 -0.32119823 0.1119308 0.18509385 -0.24319464 0.07484883 0.28738487 -0.4992532 0.1557367 0.16120829 -0.26260385 0.04074326 -0.11275416 -0.16780093 -0.119956955 0.29538155 0.03037679 0.0071432767 -0.2511594 0.19788615 -0.30468398 0.23716165 -0.07869774 -0.21037939 -0.03866188 0.018061152 0.21239154 0.005910418 -0.18224742 -0.39680192 0.057807844 -0.32296783 -0.2615295 0.17764941 -0.48570454 -0.1759353 -0.36050433 -0.007265269 0.10575172 0.0521567 -0.07784001 0.064571485 -0.16834933 0.09846484 0.049970582 -0.2977349 0.012594503 -0.07984836 0.120245494 0.05821722 0.1900497 -0.14917327 0.11583594 -0.13836455 -0.2920682 0.07633527 -0.18215081 -0.23457949 0.15369359 0.29505348 0.38818723 -0.052971236 -0.09612009 -0.010227555 -0.28353468 0.028976405 -0.034980576 -0.10827016 -0.40312374 -0.13080807 -0.2586377 0.18717994 -0.4949231 -0.2902547 0.01900768 -0.09849146 -0.04881393 -0.22988886 -0.2657736 -0.014516906 -0.0046336567
度 -0.47966605 -0.06399804 -0.027999263 -0.42821166 -0.08977094 0.123715624 0.054162405 0.27545384 -0.14043179 -0.5380369 -0.04777186 0.08234736 0.20374735 -0.50319815 0.24432403 0.16695718 0.06256395 0.1368004 0.27112833 -0.10721605 -0.04620076 -0.10689579 -0.12944828 0.27457598 -0.019881278 -0.13346921 0.010245284 -0.026292825 -0.055474773 0.49966606 -0.15926102 -0.04803387 -0.08394509 0.34282416 -0.01412689 0.52711874 -0.09660839 0.02687195 0.34702173 -0.05290432 -0.1983444 0.13928193 -0.19995637 0.28935507 0.19853514 0.116672665 0.4025314 0.12365587 0.14654726 0.023497522 0.15380955 0.06366699 -0.15041739 -0.064545065 -0.39996174 0.26077184 -0.2422413 0.3867337 -0.22225502 0.18505146 0.1857666 0.092846096 0.4610874 0.16658741 -0.028493054 -0.11518095 -0.18098873 -0.13961346 0.07282837 0.30283248 0.107410625 0.3861994 0.021053145 0.12938657 -0.2759092 0.3269642 0.016755743 -0.02389872 -0.053497806 0.1863475 0.0063985684 -0.31214774 -0.10123833 -0.35588163 0.6090752 0.23553377 -0.030367928 0.058856685 0.08410038 0.0014206214 0.005908535 0.056999512 0.35079572 0.0673817 0.13102186 0.008809279 0.019857306 -0.15831286 0.003187396 0.037529122 -0.06293539 0.061143316 -0.22064078 0.03976766 -0.66632456 -0.2414739 0.4976505 -0.10726727 0.2989186 -0.2542553 -0.14697692 -0.08329472 0.3105099 -0.20657039 -0.02033247 -0.06368355 0.0069912225 -0.09414714 -0.3797759 -0.13544875 0.2748438 -0.14607495 -0.23900877 -0.2647334 -0.053647548 0.0012141406 -0.08855018 0.4483507
开 -0.3165262 -0.36429402 -0.36401603 -0.11773077 -0.106458575 -0.080078974 -0.27955788 0.021859406 0.25209484 -0.44034275 -0.29370892 0.06059246 -0.27190876 -0.17828624 -0.50857365 0.1707372 0.0973991 -0.004787964 0.056857638 0.04196741 -0.2372052 -0.21143733 -0.32013366 -0.2495265 0.008760806 -0.038670167 0.09155076 0.020863863 -0.045414377 0.1300665 -0.46409026 0.007902491 -0.0338033 -0.109324984 0.057621893 -0.06984716 0.22906314 0.027657682 0.15050304 0.21437223 -0.2020259 -0.071380526 0.03589764 -0.042882394 -0.18045771 -0.5286227 -0.19607653 -0.5131543 0.04195323 -0.4363474 0.2924103 -0.0041143536 0.3201438 -0.21051064 -0.2824577 -0.22712733 0.14466919 0.20104897 0.11190511 -0.16012459 0.20173836 0.057307314 0.2546701 0.07170022 0.084417224 -0.11951331 -0.35870692 0.01537172 0.16661032 -0.07871897 0.012409454 -0.039958525 -0.16100976 0.16557251 -0.092947215 0.20442285 -0.015031865 -0.09634075 0.034917753 -0.08046219 0.14275533 0.22022867 -0.16995157 0.1692378 -0.068881154 -0.006148203 0.19026202 0.021368256 -0.021521678 -0.101310454 0.15099378 -0.07543198 0.13312356 0.13972205 -0.102704175 -0.3170397 -0.14085972 -0.081885345 -0.004459227 -0.289741 -0.05960506 0.118171394 0.2150843 0.38016045 0.44283414 -0.40761185 -0.16130263 -0.13863789 -0.13596949 0.21593939 -0.00528498 -0.37506077 0.18583213 -0.07298639 0.0032609547 -0.28214243 0.16434172 0.030900687 -0.072946146 0.047540613 -0.07292394 -0.18305871 -0.34463602 -0.21041067 0.074598424 -0.5663479 -0.04450073 -0.047891807
没 0.20959495 0.09390851 -0.13450845 0.15129055 -0.031741727 0.00079249433 -0.31169853 0.00731509 -0.0076061217 -0.2624035 0.08648758 0.08433843 0.0077482583 -0.13322993 -0.13041352 0.029797554 -0.3011567 0.23555484 -0.0137367 0.22167706 0.1410918 -0.18658228 -0.017416548 0.0007259636 0.14802267 -0.20327812 -0.30514166 0.2102224 -0.058042467 0.1535286 0.046388086 0.15011309 -0.24091609 -0.075307004 0.0431015 0.2825243 -0.18878219 -0.300229 0.16625144 0.07553052 -0.08302842 -0.21342829 0.21695437 0.014441538 -0.28300157 -0.043126397 0.0003737239 0.11698447 0.054537967 0.23553059 -0.08080632 0.35636762 0.07163113 0.052144665 0.35576946 -0.031928238 -0.22198914 -0.03420202 0.351203 0.095762655 0.25369874 -0.28164324 0.3980215 -0.0019077522 -0.08311552 0.13416399 -0.070474826 0.12903884 0.0772911 0.31349397 -0.14229736 0.30532023 -0.1935509 0.07224421 -0.14380264 -0.0033298258 -0.20494235 -0.0684984 0.35554397 0.11615073 0.19887169 0.07926628 -0.097842626 0.3277913 0.17829755 0.10428285 0.3404248 -0.030765697 0.40535387 -0.37622342 0.33740145 -0.17822054 0.18547255 0.11605721 -0.1735522 0.2322479 -0.096187025 0.08196377 -0.22050636 0.2639699 0.1272342 0.029537052 0.30513462 0.057418343 0.0057924464 -0.08915858 0.15991528 -0.11425935 -0.06901192 0.08575807 0.2198915 0.010324744 0.19291782 -0.18596156 0.11074694 -0.13767767 0.36813352 0.061309107 -0.019672938 -0.3527651 0.26327124 0.05162943 0.10719266 0.27146038 -0.16170113 0.16345067 -0.036984872 0.030400459
支 -0.17232007 -0.35638887 0.07986514 -0.026004707 0.021461638 -0.22776459 0.07445187 0.1821152 0.006839513 -0.35474807 0.17850345 -0.33494806 0.03858995 0.22281682 -0.26440486 0.14071628 0.054445527 0.17365721 -0.12151481 -0.16508296 -0.04226165 -0.20804296 -0.49166775 -0.3584372 -0.047151197 -0.015514759 0.0053939265 0.093146406 0.023053486 0.36705142 -0.19491182 0.2184366 -0.14652674 0.1939677 0.21402402 0.2549049 -0.07947681 0.27546147 -0.2724898 0.21795654 0.2837951 0.13969302 -0.39744452 -0.087554604 0.14274241 -0.11545351 -0.36675844 0.3527509 0.05490852 -0.07375278 0.14764555 -0.029083453 -0.14335981 0.08316459 0.10951567 -0.16417009 0.0070357798 0.1690305 -0.04641011 0.024198813 0.2213915 0.0079184985 0.16193461 -0.14783387 -0.48465565 -0.23659217 -0.43714353 0.35621867 0.11140294 -0.2895843 -0.024399692 -0.013516721 -0.17644887 0.31316566 -0.047198325 -0.07866468 0.12317061 -0.26247495 0.09536558 0.15584373 -0.019636633 0.033946373 0.14546736 0.27998754 0.11373599 -0.11460092 -0.2629491 0.1422921 0.04417036 -0.22960521 -0.114762574 0.2923908 0.23385389 0.073256366 -0.024481012 0.09773748 0.16570285 -0.020347267 -0.094018176 0.20398855 0.009219306 0.04620661 0.24452907 0.14734684 -0.14843458 0.17518352 -0.10238552 -0.050205577 -0.3370027 -0.041392315 0.023216864 0.27796355 0.21403132 0.025143094 0.03452566 0.023933545 -0.15181452 0.1701591 -0.18668032 0.17257705 -0.028271228 0.2694257 0.18064207 0.035541546 0.085398875 -0.28521466 0.017754778 -0.19285421
钱 -0.19195183 0.0450582 -0.12452327 -0.055095088 -0.26342177 0.06341437 -0.1862065 0.104767516 0.081317216 -0.06145407 0.07089328 -0.09333135 -0.26880443 -0.3281393 0.06278604 0.16469903 -0.1439741 0.120485246 -0.044731744 0.06516883 -0.13536331 0.14594755 -0.007979042 0.04968365 -0.08744557 -0.016459476 0.26666722 0.41057786 -0.06217599 0.26437446 0.19905037 0.1353472 -0.03818853 -0.040923785 -0.112424225 0.113018245 -0.44082195 -0.11648995 -0.2428575 0.3076137 0.032104015 0.002098466 0.31169412 -0.2122479 0.0739301 -0.14030282 -0.22838193 0.14170684 0.17574555 -0.21969645 -0.18917124 0.0059461403 -0.15492558 0.21592376 -0.08406144 0.033307936 -0.1421214 0.406936 -0.40817446 -0.0075171995 -0.051331565 0.028896023 0.06335413 0.102356 -0.044350553 -0.10109633 -0.3269278 -0.10927402 0.014825224 -0.12475646 0.099511 0.06540551 0.1286983 0.114088185 0.0076452782 0.123128586 0.06384453 0.07844642 -0.020851051 0.19079483 0.0048499904 0.23614553 -0.040682126 -0.10808296 0.0009382048 0.057605032 -0.018275606 0.21951112 0.15617089 -0.043559585 0.2041515 0.08210514 0.12903576 0.23992315 0.13893177 0.20869562 -0.023383014 0.14266248 -0.27947277 -0.1766563 0.20626718 0.1357161 0.03805755 -0.06931268 0.06589208 -0.07997374 0.048577502 -0.07751715 0.113144174 0.07565167 0.29193658 0.14532611 -0.059743986 -0.2467548 0.15054072 -0.37595358 0.15737815 -0.40067735 -0.34126985 0.095503226 -0.118039966 0.42409545 -0.21359642 0.20669031 -0.3858193 -0.21074402 0.2139087 0.16871917
一 0.05040738 -0.17955802 0.058538705 -0.27351448 -0.22205353 -0.09102269 -0.14073378 0.04181585 0.11846639 -0.46571353 0.30825716 -0.24565125 -0.18327408 -0.043670196 -0.2501577 -0.29806834 0.12547168 -0.14142567 -0.31003207 -0.20889436 -0.26251915 -0.22434276 -0.17888595 0.14998822 -0.35773084 0.2999251 0.18758303 -0.042278573 0.114465706 -0.06116177 0.1924579 0.14372247 -0.49443397 0.25732207 0.094187066 -0.2706207 0.108640596 -0.3265354 0.08961802 -0.0017038464 -0.15412118 -0.036858857 -0.0359934 -0.09768903 -0.17852066 0.023765365 -0.36554778 0.016080339 -0.06840372 0.032742538 0.08334409 0.17731832 -0.19994484 -0.18706343 -0.13655522 0.2020284 0.11286486 0.13528892 -0.08605183 -0.21281813 -0.16285084 0.111344196 0.1646023 0.0057389853 0.07834569 -0.008322254 0.026163299 0.10102814 -0.16711389 -0.30864343 -0.01911235 0.05630562 -0.21651855 0.17624423 -0.2099294 -0.1860642 -0.18467565 -0.078228615 0.19902204 -0.08509076 -0.053607903 -0.021968583 0.23278494 0.024331432 0.38529378 0.1928563 0.22988704 -0.1977342 -0.24399628 -0.18532073 0.052977454 0.2965455 -0.06569233 -0.10870962 -0.12103831 0.0477931 0.01439749 -0.20329946 -0.15873253 -0.1812947 -0.14934859 0.11599675 0.2570911 0.1698032 -0.2546401 0.05092585 0.146581 0.17248797 -0.6277379 -0.007856384 -0.18123 0.06398123 -0.047535438 -0.21294966 -0.04531072 -0.01250414 0.42928052 -0.25206688 0.05956999 -0.2360707 0.16681664 -0.2358437 -0.3734297 0.034214336 -0.058811236 -0.04726279 0.2588184 -0.03392684
通 -0.08877779 -0.37307534 0.044170886 -0.19282006 0.17995264 -0.1691775 -0.08286004 0.5813599 0.2544594 -0.5070794 0.02742093 0.17239842 0.049596533 0.08193939 -0.32388133 -0.1679162 0.1283106 0.17423043 0.030881716 -0.16613063 -0.030143946 0.037694797 -0.29764888 -0.10474751 0.17333746 0.048596222 0.048988316 0.0048192414 -0.5144669 -0.1381461 -0.2591641 -0.089181915 -0.42484933 0.037549205 -0.24627423 -0.07599062 -0.16561355 0.26981014 0.072915345 0.24217764 -0.090620264 -0.07568461 -0.062234145 -0.09932729 0.17351386 -0.34534076 -0.23622264 -0.17156374 -0.22541729 -0.17767058 -0.015955696 -0.17285651 0.14602523 -0.39631316 -0.120095894 -0.18181738 0.046651397 0.024968792 -0.44794837 -0.12669694 0.13363504 -0.18262407 0.09455808 0.16605483 0.5351735 0.17756957 -0.25132546 0.20867327 0.5013696 -0.039151367 -0.1430947 0.124031276 -0.10381666 0.17012171 -0.17037743 0.19693507 -0.14461388 -0.18741076 0.14027366 -0.17624319 0.46024576 0.14191113 0.10589902 0.048307538 0.14668834 -0.29888678 0.0012079192 0.011358658 0.0691782 -0.16052598 0.40334827 -0.112006925 0.28363395 0.47131407 -0.43110323 -0.36185423 -0.11602393 0.35837042 0.01620411 -0.17669956 0.267174 0.09102568 -0.019658899 0.08339193 0.4141532 0.06459539 0.1541732 -0.17505138 0.008551274 -0.025889615 -0.17538722 -0.08367311 0.41481328 -0.08187617 0.00041160718 -0.09026973 0.17934835 -0.37247232 0.038473293 0.21251437 0.013356738 0.13402621 -0.057771124 -0.05596057 0.37668556 -0.1508639 0.42418545 -0.09501364
个 0.27568272 -0.39291373 -0.06420248 -0.14103186 -0.2447844 -0.33505684 -0.4707832 -0.21103434 -0.19952011 -0.43630219 0.35744435 0.055826478 -0.010976445 0.072324075 0.19641837 0.15217127 0.133439 -0.1560404 -0.04134318 -0.1487943 -0.12970643 -0.08240207 0.022736093 -0.08550188 0.063749075 0.027495764 0.41498205 0.22103436 0.29829642 0.053766068 -0.04149841 -0.16152598 -0.04925209 0.24037793 0.17859091 0.06338729 -0.038788605 -0.24464609 -0.05534554 -0.17212783 0.09660885 0.15836635 -0.3474736 -0.089956455 0.059475202 0.021687789 -0.11584735 0.11660519 0.0810566 -0.19199027 0.32128426 0.09656937 -0.107136376 -0.07710902 -0.052398913 0.44352368 0.0063924235 -0.5319309 -0.10918907 0.016444981 0.03093817 0.025789151 -0.25898042 0.27390185 -0.1503902 -0.24277131 -0.070734516 0.29571792 0.083717994 -0.24686994 -0.09952451 -0.064275794 -0.105323456 -0.32663253 -0.13094333 -0.14646669 -0.23097944 0.010299973 0.105155356 -0.2280387 -0.012220208 -0.060674347 -0.22198883 0.12554684 0.042385135 -0.1755042 -0.33335343 -0.26642573 0.20095596 -0.16512597 0.38851354 0.109128915 0.21553834 0.19290346 0.15158063 0.3981127 -0.01575552 0.023347588 -0.15717205 -0.1909102 -0.03418199 -0.13748458 0.3862284 -0.11614533 -0.10260237 -0.2125351 -0.030983157 0.09020101 -0.20547976 0.05008712 0.078316525 -0.2927418 0.62525165 -0.11003641 0.32890528 0.026491746 0.22677957 -0.26922384 -0.25788343 -0.25263545 0.20872304 0.029635223 -0.29636315 -0.1513139 0.087482914 -0.16856065 0.11221915 0.14713077
在 0.24927285 -0.14944111 -0.15301876 -0.018427325 -0.2466989 -0.049669135 -0.28306925 -0.14119253 -0.073745355 -0.09729045 0.42846203 0.054030474 -0.4465178 0.20808867 0.1001267 -0.041619085 0.07010347 0.09218121 -0.3038984 0.16275181 0.19380245 -0.06693616 0.051648118 0.13393909 0.04513998 0.08093969 0.17184187 0.21847717 0.07757989 0.09420456 0.099193364 0.25353917 -0.22060741 0.046442095 0.1876874 -0.096908666 0.21724711 0.05528918 -0.17529756 -0.110511556 -0.08200412 0.32869285 -0.003955499 -0.086867765 0.042194575 0.014502751 0.1511357 0.111054584 0.01592556 0.18092771 0.13703418 -0.18576474 0.15279223 0.13484003 0.4996117 0.28287607 0.1835922 0.48920134 -0.15086882 0.09060947 0.22877905 0.12563035 0.27022514 -0.07590017 0.025131054 -0.0684149 -0.1785026 0.18345165 0.19444986 -0.06519748 0.13056757 -0.019306894 -0.27314222 0.28251028 -0.18434052 -0.010942133 0.08772474 -0.012608377 -0.21967955 -0.42387813 0.12856188 0.01946613 -0.0560647 0.102732204 0.15556966 0.006453531 -0.121083505 0.15924856 0.22509132 -0.13272773 0.21169363 0.13401264 0.1711094 0.08308454 -0.0011791248 0.085139476 0.1114654 -0.32172805 -0.086622484 -0.043363165 0.3307953 0.1848021 -0.030885203 0.12592426 -0.056214694 -0.05270503 0.19767979 -0.06991647 0.0106708985 0.15758024 0.19148697 -0.062021166 0.16226529 -0.01350226 0.14326702 0.014964623 -0.08260728 -0.33176523 0.4399258 0.23021951 0.051057875 0.024419444 0.08790628 -0.2420168 -0.05565459 -0.03508183 -0.10392885 -0.24297482
* 0.40456748 -0.019827005 -0.15055767 -0.35116044 -0.2886818 -0.014868459 0.09594401 -0.206855 0.1945285 -0.2389997 -0.014942082 0.16325715 0.10839567 -0.25299156 -0.18437012 -0.031035146 -0.108016476 0.020021822 -0.0015816566 -0.24360435 -0.10794594 0.027152993 -0.27932608 0.28308913 0.003666832 -0.06393112 -0.06952153 0.31070986 0.3222726 0.3945937 0.055640526 0.07659691 -0.0511117 0.00997654 0.22146663 -0.0017834003 0.37267476 -0.25229442 0.16189617 -0.17020565 -0.26007515 0.02541042 -0.2299376 0.22366469 0.14389823 0.014603536 -0.20441113 0.14938042 -0.15808786 0.20098591 0.1571019 -0.18543653 -0.17399316 0.3655655 -0.20897289 0.15314682 0.34623614 0.034438472 -0.05727738 -0.25369388 0.09062042 0.26655036 0.22197847 -0.28634527 -0.21070157 0.04649379 0.11738071 0.11251066 -0.085093394 0.038668577 0.20225085 0.0021214641 -0.03885634 -0.0008658093 -0.05644371 -0.15905458 -0.20382126 0.069820285 0.100039646 -0.08030383 0.3322006 -0.0490237 0.028190086 -0.076850995 0.3296958 -0.01867567 0.06057449 0.13321654 0.26241097 -0.028545754 0.26809064 0.2500731 0.14081502 0.42705643 -0.08851701 -0.019521818 -0.513122 0.086510845 -0.041123405 -0.02691871 -0.12192848 0.11762792 0.16183749 -0.1543194 -0.07082939 -0.15357296 -0.1308402 0.18498649 0.13859913 0.010800426 -0.121488266 0.24172303 0.023867724 -0.35746995 0.055097125 -0.11127571 0.038605776 -0.44203675 -0.030250492 -0.35658655 0.20172988 -0.055916812 -0.20009454 0.039538745 -0.37253067 -0.109703645 0.009967483 -0.12939036
宝 -0.34491166 -0.24356751 0.0968648 -0.25901058 -0.102081284 -0.12695125 -0.32218292 -0.073815234 0.13216722 -0.16535784 0.17118806 -0.08597182 0.20615788 0.037547387 -0.26781157 0.066936456 -0.03102586 0.16585279 -0.07611602 -0.0741648 -0.1072946 -0.22979994 -0.2413064 -0.37656015 0.23836659 -0.15671675 0.024754334 0.7123018 0.19859959 0.22041054 0.03606152 0.13058186 -0.50065595 0.0996795 0.15201028 -0.14473069 -0.074592076 0.1482221 -0.39958394 0.09169228 0.22458436 0.46054038 0.21391979 -0.057192054 0.12691517 0.36221334 -0.13833597 0.2806798 -0.27477968 -0.026070176 0.14268103 -0.30860117 0.19191316 0.08031475 -0.017581277 -0.17166398 -0.4610704 0.10785802 0.017144477 0.09554962 0.09776054 -0.03225776 0.22680862 -0.2751701 -0.0709678 0.025719248 -0.28587943 0.09433264 -0.32378381 -0.13819472 0.35065386 -0.018145474 -0.06758565 0.40844533 -0.32677588 -0.5288157 0.23672076 0.09591009 0.08883284 -0.001988275 0.30250117 0.27660996 -0.042392734 0.47569415 0.24207819 -0.41562733 -0.14379612 -0.06543227 -0.08039483 0.2800391 0.16817321 -0.009561369 -0.052836444 -0.29090473 -0.08631448 0.5515609 -0.0211266 -0.026913252 0.10641473 0.2278786 0.052980617 -0.20945242 0.061865367 0.213065 0.28369337 -0.13809025 0.10020844 0.06321425 0.11267237 0.15536113 -0.011351508 -0.034139194 0.15635595 0.001026776 -0.1573169 0.12465876 0.48466194 -0.00025450173 0.089834474 0.46167368 0.021849366 -0.044429086 -0.054091416 -0.2806229 0.106967606 -0.07929056 0.15733309 0.16584904
提 -0.22244945 0.25741544 0.32757366 -0.08254255 -0.049592126 -0.39368236 0.021926155 0.7006607 0.19570623 -0.24967575 -0.05046625 0.015917186 -0.2569246 -0.019842196 0.0036135106 0.026073279 -0.16415492 -0.23131582 -0.0018233613 0.1700573 0.12769417 0.28460807 -0.14695849 -0.028514868 -0.19938341 -0.25656357 0.3391035 -0.019143606 0.152539 0.06295209 -0.11117277 -0.34523916 -0.011265945 0.027571969 0.33357435 -0.094350375 0.22332364 0.08400787 0.09791675 0.08496897 -0.2503944 0.027160227 0.12314882 0.25419906 0.2509001 -0.2833649 0.07628397 0.22358501 0.28402984 0.34192267 -0.10112438 -0.24442534 -0.12712671 0.19018094 -0.15316962 0.41260228 -0.00868816 0.13243815 0.38996655 -0.24732116 0.19473165 0.014589826 0.20019102 0.10241258 0.06522849 -0.15500116 0.19934581 -0.26560706 -0.11786063 0.013396019 0.21086939 0.04202182 -0.30641824 0.1658419 -0.41878825 0.49880293 -0.25934967 -0.11029762 0.2805655 -0.40371072 0.31707513 -0.20126523 -0.421798 -0.12799865 -0.069063894 0.3043619 -0.17050208 -0.4426345 -0.064948626 0.008679789 -0.025486277 -0.028869689 0.117041506 -0.12323591 -0.24902691 -0.5228442 -0.20835298 0.17968082 -0.24113403 0.19719824 0.5241036 0.34535497 0.22142144 0.001980401 0.010509841 0.14708675 0.41835588 -0.09475777 0.030426027 0.45933697 0.0019345506 -0.12713599 0.027392626 -0.1176536 0.1820652 -0.055904374 0.2149321 0.01752848 -0.12145565 0.25957823 0.11047875 -0.023474371 -0.10726741 0.04374319 -0.31246367 -9.679148e-05 -0.07562836 0.11583339
到 -0.00020087439 -0.26941103 0.03531109 -0.06455221 0.11012436 0.07391765 -0.15397754 0.072263956 0.11081416 -0.21799092 0.2892051 0.09874904 0.00774397 -0.12413876 0.004669266 0.28023896 -0.15944749 0.32034746 -0.2462145 0.16292351 -0.041137297 -0.03445717 0.12181162 -0.0076421164 -0.20515676 -0.19678777 0.016594931 0.2586637 -0.21536833 0.01695303 0.040343888 0.22850905 -0.3182497 -0.31718904 0.008583608 0.0015232284 -0.107403845 0.11968204 -0.03079138 0.08657422 0.15639822 -0.0029896756 0.44037306 -0.3202056 -0.085111134 0.15580434 -0.07438109 -0.107570276 0.16559157 0.12838149 0.14253083 0.07164906 -0.015112032 0.36952132 0.055182256 0.2755983 0.15869223 -0.12463492 -0.28462473 -0.17358716 0.07269372 0.4237887 0.15955274 0.11178379 0.03633721 0.09166343 -0.03462585 0.16015495 0.11478302 0.22351141 -0.045150954 -0.20941304 0.27954084 0.14447397 -0.08353125 0.10520933 0.047798205 -0.01800709 -0.26639244 0.03766386 0.15752661 -0.10323571 -0.065502904 -0.41668493 -0.065308094 -0.23559248 0.18046573 0.16635832 0.066349156 0.35803038 0.17220575 0.11115686 0.33637217 -0.0222616 0.11691395 -0.11746462 0.036315527 -0.088810176 0.009721902 -0.13884415 0.04040372 0.19198225 0.40444422 0.21713391 -0.23410013 -0.18409817 0.15630098 0.021258248 -0.46820232 0.39065254 -0.104537725 -0.32219467 0.42410406 -0.059332937 -0.010940119 -0.15245834 0.23767604 -0.1951297 0.112765625 0.06869104 0.1860313 0.329502 -0.003383948 0.10259924 -0.5977095 -0.009078519 -0.088196196 0.21007389
时 -0.0052595497 0.07251079 0.02084678 -0.3350293 -0.15065081 -0.13822964 -0.099337965 0.38108468 0.4472289 0.010554267 0.13183276 0.20497176 -0.08586323 -0.13096578 -0.04783091 0.42615655 0.20105788 0.14745988 -0.03211566 -0.25579584 0.1873992 -0.32419413 0.28441763 0.23063222 -0.1851822 -0.08242176 -0.27333212 0.43830785 0.39326924 0.01839655 0.02202422 -0.0849258 -0.10768166 0.05160328 -0.032420117 0.21139798 0.3613913 -0.4600023 0.2945292 0.04432576 0.018938566 -0.17128204 -0.20375979 -0.0075620594 0.25050732 0.43624106 -0.17518027 0.019087575 -0.27325445 -0.34584862 -0.21416478 -0.0014950976 -0.20660508 -0.3732075 0.219183 0.07183723 -0.23382775 -0.009767677 -0.20248201 -0.2772518 0.4596143 0.14629368 0.41782063 0.31220344 -0.16127889 0.07749571 0.10309691 -0.27341926 0.06735194 0.1859227 0.112507 -0.03300993 -0.02780359 -0.105028294 0.022346813 -0.051510017 -0.11542627 -0.18116309 0.17024252 -0.071094766 0.093794785 -0.5809384 0.29561755 -0.06000905 0.095206 -0.1508014 0.21423735 0.0150516955 -0.16441566 -0.445733 0.3536951 -0.03276311 0.056245577 0.2276096 -0.039648853 -0.1663756 -0.081740156 -0.35329047 -0.09426065 0.19361253 -0.06318106 -0.20679063 0.08536557 0.3663654 -0.1862752 -0.009370624 0.19282371 0.10790443 0.18220545 0.3156912 -0.08704601 0.011685179 0.30577785 0.056349393 -0.35460785 -0.20685822 0.044372942 0.039144635 -0.69012886 0.2459674 -0.19544443 -0.28891176 0.10882007 -0.37719378 -0.25078416 -0.15926974 -0.26501092 -0.14636667
号 0.008091541 -0.5393847 0.09204937 -0.12954876 0.06332675 -0.1497107 -0.69903755 0.117381595 -0.09555154 -0.6645815 0.40233245 0.29155535 -0.39237294 0.051443286 -0.24868369 0.008093805 0.1615146 0.23100643 0.056909315 0.47874817 0.14191929 0.04641504 -0.082023494 -0.057405584 -0.01751134 -0.082223915 0.0023105866 0.18096362 0.53569394 -0.060837142 -0.3656133 -0.17725596 -0.14435665 0.03097365 -0.086150564 0.17793041 0.07020512 -0.37124252 -0.07951873 -0.0631235 0.0043972926 0.5243767 -0.29865018 -0.12340416 0.2697529 0.14800386 0.088270135 0.24875332 0.114556 0.031193392 0.4223069 -0.10568164 0.05898976 0.08756281 -0.12781987 -0.1297609 -0.030245159 -0.027454471 0.14814138 -0.17892458 -0.49331546 0.16813508 -0.16128899 0.071772486 0.10654316 0.1199591 -0.31231457 0.7332106 -0.37222517 0.15444827 -0.11721746 0.0059690773 -0.23788737 -0.17671432 0.22221369 0.10561739 -0.5378139 -0.2800609 -0.26643148 0.119824536 -0.24802122 -0.055113424 -0.11061902 0.124545 0.0032782222 -0.019612396 -0.3441811 -0.07273613 -0.3314852 0.030765666 0.10286148 0.16656578 0.29533052 0.3706484 -0.014164397 0.6202549 -0.10430863 0.1512795 -0.3773966 -0.19328919 -0.06256095 -0.29055196 0.1756834 0.2523199 0.044607837 -0.016157037 0.30441722 -0.10351985 -0.27711698 0.42924476 0.11799523 0.048924413 0.1895329 0.1331381 0.20748256 0.31116346 -0.081913084 -0.08973335 -0.48183015 0.22487108 -0.2418393 -0.035896614 -0.25066718 -0.04577809 -0.2033504 -0.14135432 0.14202267 -0.34261486
月 0.15645657 -0.08407186 0.06306206 -0.20879509 -0.29012203 -0.02088633 -0.2567264 -0.19783092 -0.11606955 -0.26367366 0.13851723 -0.1601273 0.08526351 -0.38436443 -0.32268173 0.13480027 -0.04377312 0.36605936 -0.30155277 0.06186593 -0.12591664 0.25194702 0.21409173 0.2951009 -0.3205957 0.119311206 -0.09157477 0.34320164 0.3565268 0.52290577 -0.08694537 0.023956923 -0.040947136 0.28209132 0.21609765 -0.09922198 -0.023829358 0.09320108 0.015520265 -0.2714785 -0.14009804 0.04986308 -0.47539985 0.12156722 0.13333102 -0.19581613 0.023662414 0.20092009 -0.014175332 0.14187858 0.35891303 -0.4396908 0.07985193 0.12268824 0.031142334 -0.23118147 -0.12410556 -0.20697217 0.065292984 -0.31134754 -0.1571079 0.47205156 0.049132008 0.1461909 0.009333814 0.14647542 0.047786377 -0.03964492 -0.28630477 -0.16665426 0.32557973 -0.069257505 -0.19755572 -0.5201527 -0.35305527 -0.13958654 -0.22376049 -0.18819745 0.1715622 -0.22257794 0.26159367 -0.29755524 0.076064065 -0.28741688 0.2644066 -0.5122688 0.36982566 -0.33113608 -0.14550732 -0.37453887 0.5113472 0.24382289 0.02493074 0.38984996 -0.07531805 0.083018415 -0.21196984 0.29432413 0.10398444 -0.19268188 -0.24108095 -0.07711935 0.63604486 -0.65778506 -0.16159548 -0.43039232 0.04378296 0.23572378 0.0671393 0.017903384 0.37001705 -0.074493766 0.32851633 -0.25534618 0.122195266 -0.17475963 -0.1855455 -0.04138869 -0.15041956 -0.45969665 0.049231827 -0.032427885 -0.51628447 -0.17921117 -0.024323765 -0.28712255 -0.28804624 0.34686962
多 0.2682422 -0.45979175 -0.16382205 0.16069555 0.021184253 -0.4972681 0.1161827 0.09294439 0.20376271 -0.17215726 0.37610728 -0.13463527 0.065848015 -0.13710412 0.023153849 0.76799196 0.050181083 0.28795823 -0.083325416 -0.3198804 -0.0077440557 -0.00013075324 0.102266096 0.25802895 -0.19751583 0.14953445 -0.092247896 0.08983493 0.26422766 0.38877344 -0.11542457 -0.03250454 -0.2416694 0.15859912 -0.13316458 0.05804114 -0.16152138 -0.11625323 0.05958163 -0.029154336 -0.31988683 0.1664633 0.00938302 0.20636964 0.018292677 0.15653096 -0.40926087 -0.22048147 -0.025591416 0.28964928 -0.049136803 -0.05763355 0.08312459 -0.25020897 -0.49380237 0.104032554 -0.20170441 0.02305922 -0.041335594 0.033168443 -0.006376531 0.060845494 0.2879619 -0.11056562 0.15433107 -0.0677437 -0.0153335715 -0.52767694 0.15081213 -0.04989223 0.5087113 0.11910558 -0.27408853 0.16201445 -0.02082151 0.34457722 -0.32843196 0.10643666 0.19761996 -0.21839182 -0.13137884 -0.08757237 0.3130461 -0.34387663 -0.023535443 -0.15855113 -0.26900226 0.4688418 0.18462723 0.10855909 0.24440634 -0.01015313 -0.365493 -0.04864362 0.14327452 0.46878195 -0.15703447 -0.19532642 -0.20149584 0.09541261 0.22840703 0.028129073 0.5574911 0.29293272 0.16549207 0.068133295 0.31865323 -0.180683 0.20304705 0.29759964 -0.2682887 0.35205802 0.1688818 -0.31004012 -0.1537378 0.015281447 0.01816765 0.017136319 0.30094358 -0.7642267 -0.19974579 0.076375075 -0.09765122 0.08244722 0.08938963 -0.20884813 0.11893749 0.34711874
账 0.15703943 -0.0530105 -0.09145784 -0.36245063 0.08076733 -0.041946013 -0.5944221 -0.04826377 0.2963883 -0.6911431 0.21312462 -0.3331196 -0.11646993 0.14512669 -0.07472567 0.12320279 -0.19073543 -0.24425821 -0.3752329 -0.2109609 0.028194297 -0.026196402 0.12957823 -0.19042663 -0.12836348 -0.5000747 0.22954077 0.016674338 0.27142185 0.19032009 0.07679802 0.2773757 0.15232173 -0.04773338 0.006486985 -0.2016419 -0.0028965003 0.28844926 -0.5005956 0.013606742 0.29624858 0.22889426 -0.36639908 0.08282986 0.38049728 -0.22988592 0.09782999 0.18348226 -0.04233075 -0.122508064 0.26836616 -0.32185185 -0.37451813 -0.25640896 -0.076117225 0.3027088 0.004487035 -0.051280826 0.062036313 -0.07092535 -0.14933906 0.20503394 -0.15487668 0.14327899 -0.24498677 -0.12757836 -0.18252654 0.15737219 -0.023055684 -0.15198937 0.042596944 0.047168273 -0.08558549 -0.10867611 0.018843828 -0.18175046 -0.47040564 0.11944103 0.28831136 0.1667132 0.085545935 0.044626556 -0.31371123 0.38915646 0.03830695 0.08356477 0.26704416 0.19063292 -0.078276515 0.25545138 0.29990065 0.11131751 0.3679479 -0.041111305 -0.14915358 0.050124254 -0.14946824 -0.3119963 0.05670282 -0.24678472 -0.17370148 0.10552837 0.08290525 0.16646063 -0.05521699 -0.27224657 0.15988193 -0.17150526 0.07854968 0.3950271 -0.22132283 0.109710544 0.25081012 -0.13041851 -0.20098658 -0.023739694 0.2382378 -0.21483015 -0.30318785 0.07323046 -0.07074578 0.100684874 0.0038872438 0.43228698 0.046670686 -0.09380271 -0.36084148 -0.19203947
收 -0.18423687 -0.17811236 0.39798498 -0.40670455 0.41872153 -0.2834884 -0.09216984 -0.24098912 0.26054922 -0.09084013 -0.5839119 -0.13308817 -0.087463595 0.26241305 -0.26519138 0.06742406 -0.04372306 0.4696752 -0.03980357 -0.018731551 0.14850682 -0.027535368 0.11911891 -0.06426888 0.26941153 -0.2115588 0.021662116 0.16825785 -0.019984763 0.14224146 -0.23988298 0.110456556 0.10563998 0.19736879 -0.25617027 0.101692416 0.030217407 0.26976603 -0.14245191 0.37353712 -0.602285 -0.25115874 0.031033752 -0.08486239 -0.06746217 0.2906828 0.2957623 0.22596161 0.25339532 -0.22911847 -0.030646985 -0.1570391 0.18558419 -0.13020171 0.05808715 0.005688834 0.071219064 0.116943456 -0.28886425 -0.0843511 0.0071944613 0.26235765 0.10865482 -0.03212089 0.50492984 -0.41271394 -0.42494878 -0.089974575 -0.11146764 -0.5323302 -0.06011408 0.37909037 0.05194978 -0.041260004 -0.0017025794 0.07374661 -0.16233198 -0.64212 -0.0801077 0.19695844 -0.27986217 0.106133044 0.41579777 -0.024157016 -0.01273349 -0.03260329 -0.24539198 0.24559745 0.12338672 -0.29463673 -0.2504883 0.122491024 0.18931933 0.26462975 -0.3524386 -0.15769906 0.10506333 0.16404678 -0.38743672 0.15566115 0.43129465 0.3580038 0.10158625 0.2814018 0.6103451 -0.31035393 0.066542074 0.016671378 -0.2732019 0.24822575 -0.24379909 -0.370899 0.05658252 0.014267868 -0.18318574 0.10633443 0.28695884 -0.14327604 -0.37276655 -0.100052096 0.2716987 0.42419684 -0.15140894 0.0054568406 -0.083394095 -0.26132908 -0.068753354 0.116845824
要 0.026100745 -0.029322332 0.082170956 -0.18479082 -0.1070624 -0.18175384 -0.29373136 0.024983775 0.30124187 -0.085512295 0.011247813 -0.07299368 -0.00019318753 0.033406004 -0.16073383 0.001708412 0.070953004 0.15793733 0.040387165 -0.121487655 -0.23148079 0.07887494 -0.04837646 -0.05257235 -0.21751647 -0.16599049 -0.1023817 -0.07955694 0.34993058 -0.036405474 0.20940284 -0.030620225 -0.09192951 -0.098535165 -0.19056429 -0.04345861 0.10451066 -0.090883166 -0.04014393 0.16488324 -0.2645149 -0.2904462 -0.31176138 -0.33525726 0.08628133 -0.175558 -0.10998551 -0.22549401 0.20019367 -0.14151722 -0.027782612 -0.13426371 -0.026234591 0.24341798 -0.039730597 0.0033443333 -0.10763372 0.14171414 -0.036422744 0.099291876 0.078873895 0.052068617 0.30277458 0.2936747 0.29141977 -0.20064394 -0.05901786 -0.27104217 -0.10279713 0.37051108 0.035164338 0.3766633 -0.01260705 0.27499214 -0.1243126 0.08090296 -0.110034354 -0.13744485 -0.007901992 -0.4107213 -0.04057931 0.06518814 -0.023477146 0.042767886 0.12884398 -0.03231407 -0.18221396 0.14444911 0.14113405 0.13247265 0.19343257 0.0424968 0.06291083 0.19251637 0.05917844 0.36194026 -0.530483 0.067987576 -0.097312264 0.24411224 0.3493498 0.35634363 0.35570842 0.093047194 0.041879486 0.18923007 0.28052363 0.02229388 -0.13597211 -0.047377262 0.08291398 -0.20024987 -0.032754708 0.17122708 0.3393138 0.106541745 0.0923804 -0.0009589151 -0.3591269 -0.2839362 -0.21029514 0.08726143 -0.19029212 -0.029670699 0.22151121 0.4882876 0.03923225 -0.043656264
费 -0.08678762 -0.04822886 -0.14917316 0.10379019 0.57448703 -0.5203814 0.19854945 0.28426915 -0.4081921 -0.033658497 0.29285732 -0.09193641 0.028987134 -0.05111211 -0.33663666 0.045186467 -0.0037819159 0.017403442 -0.2455709 0.5039104 -0.44114906 0.08237896 -0.096507385 -0.17258328 -0.1760961 -0.374808 0.1813288 0.29282737 0.21573111 0.06907887 0.16987781 -0.18105073 0.4835156 -0.4721425 -0.32254693 -0.14890546 -0.062633365 -0.25795308 0.4569054 -0.0932721 -0.47392356 -0.11749156 -0.10626061 -0.5382955 0.27519223 -0.47195867 0.11573587 0.41517 -0.5009199 0.14704964 0.25467476 -0.12399534 0.0834347 -0.25189927 -0.023315262 0.08412467 -0.09323059 -0.25297248 -0.50163096 0.3228344 -0.36158013 0.07907736 0.12233374 -0.14022711 0.112043865 0.057410926 0.071937256 -0.21093899 0.0044946764 -0.26267764 -0.074813515 0.08572767 0.15847003 0.18362744 -0.45323443 -0.028895484 0.5972721 0.03676596 0.0812911 -0.17738475 0.066384 0.0036190106 0.14592198 0.1007626 0.367085 0.04450205 0.05598607 0.5634512 0.081803024 -0.2660934 0.20119582 0.4950757 0.31346494 0.24838926 0.14289878 0.0061186794 -0.10485034 0.012238803 -0.08607556 0.16138579 0.046230886 0.24599959 0.116263926 0.15054628 0.2642556 -0.30574033 0.27919218 0.2673254 -0.21797581 0.1968061 0.07572876 0.62829965 0.5032271 -0.14041126 0.24099672 -0.017859098 -0.21952896 0.23696174 0.25578693 -0.06806572 -0.0008331107 0.16602644 -0.20245075 0.33504736 -0.4024354 -0.22062154 -0.24384391 -0.25035042
退 0.0049559576 0.0032171104 0.4108631 0.0012700544 0.020111732 0.10696362 -0.3614478 -0.0002229555 0.38938278 -0.030117664 0.17531203 -0.036168553 0.20305312 0.2764551 0.22295073 -0.048584368 -0.055547256 0.24695563 -0.59599745 0.20122038 0.2752787 0.1041691 -0.012675128 -0.28481877 -0.17221892 -0.46822804 0.23249067 0.15254623 0.03309711 0.46297935 0.20289025 0.09598493 -0.2549278 -0.058599357 -0.17026255 0.5471001 0.07232171 -0.1881447 0.2917087 0.61165637 -0.21351348 -0.4088547 0.17800078 -0.3142398 0.29945928 0.0021610959 0.16399027 0.29260468 0.015063443 0.1957661 -0.271968 0.13213255 0.08245799 0.0184716 0.016030386 0.17094378 0.035215043 0.25300965 -0.07632277 -0.08758425 -0.05698759 0.29608458 0.33113343 -0.4150434 -0.35153505 -0.087811604 0.2533508 0.14555487 0.034544926 -0.15414405 -0.12159683 0.2527644 -0.068853095 0.15314193 -0.14776292 -0.35223174 -0.044874445 -0.05499678 -0.011683212 -0.24512611 0.28830126 0.3784159 0.016290586 -0.0523621 -0.0026772 -0.29026744 0.32148615 0.20055233 0.20488219 0.35042146 -0.114802286 0.41759664 -0.03523591 -0.30087614 -0.12183295 0.096982755 -0.06880135 0.2890943 -0.7305212 -0.054854214 0.017531766 0.14000879 -0.13586634 -0.13585663 0.0823038 -0.24936058 0.47974896 -0.07023309 0.08137147 0.18683563 0.33955395 -0.12877043 0.079327226 -0.4268195 -0.04815351 -0.33315542 -0.09455817 -0.20213158 -0.4362823 -0.2212731 0.09557981 0.7186836 0.069553524 0.045522235 -0.050433427 -0.016647225 -0.7312494 -0.11496567
后 -0.06290203 0.34671056 0.06383993 0.18600449 -0.076382 0.0331305 -0.080081955 0.017917667 0.27452296 -0.43255723 0.3133056 0.14467765 0.11276498 -0.18079185 -0.22055574 -0.13761579 0.012333722 -0.1429464 -0.23584397 0.22390181 -0.019175371 -0.086053155 0.17830788 0.14639677 -0.009120708 -0.10689916 -0.019569028 0.1470453 -0.07375237 0.18093821 -0.10654333 0.3579185 -0.15700123 0.21824381 0.04059141 -0.06683186 0.13707125 -0.08660717 0.2950231 0.34534517 0.0012955233 0.1658739 -0.23959656 -0.09652874 0.14620118 0.03898838 -0.024446841 0.0716605 -0.035509486 -0.10248074 0.036383446 -0.16451901 -0.041693434 0.09819141 0.17935953 0.051844448 -0.11979474 0.21752566 -0.14515667 0.13487142 -0.40365696 -0.21749781 -0.09536601 -0.114140205 -0.042953506 -0.11293121 -0.2892685 -0.15723999 0.25749367 -0.39532256 -0.010912978 0.02481604 -0.03404173 -0.042614017 -0.057802886 0.23006515 -0.25041106 -0.06854785 0.06762843 -0.2809319 -0.15356123 -0.123542234 -0.027288254 -0.15085363 0.06966301 0.096815884 -0.08867704 0.062820986 0.33122128 0.13746934 0.02036279 -0.053061217 -0.4735899 0.18488197 0.27776283 0.09571962 -0.38693196 0.08221529 0.040496897 0.38674346 -0.3311725 -0.08812173 0.41826993 0.08927418 -0.038591947 -0.0610165 0.14400396 0.084591344 -0.10615261 0.21276702 0.09885065 -0.3476381 0.14936185 0.27499816 -0.31708077 -0.20091823 0.32522532 -0.06370078 -0.17647864 -0.07565021 0.21901725 0.0023400357 0.058932833 0.06294853 -0.10198708 0.08259669 -0.39777845 0.12354943
前 0.05333756 -0.10123736 -0.084352024 0.076564305 -0.16375619 -0.14772706 -0.08258504 0.17566688 -0.06299827 -0.27411142 0.53503937 0.34632698 -0.17601602 0.21231903 -0.041727643 -0.27778092 0.121474884 -0.12124276 -0.27419153 0.006074574 0.10568381 0.54644674 0.08046878 -0.12440476 -0.028967153 -0.11141135 0.07577412 0.48184353 0.29594997 0.27279124 -0.07617115 0.034969475 -0.14779384 0.15644474 -0.1375486 -0.009759543 -0.4693447 -0.19418482 0.064588964 0.39748833 -0.25867 -0.022934178 -0.4458173 0.19422467 0.10629039 -0.06418344 -0.11311272 0.29639626 -0.15208098 0.22877939 0.12154729 -0.42854646 0.27255142 0.0726488 0.21343865 0.17140555 0.2974633 0.034966547 0.08596862 0.0732101 -0.17976728 -0.2977641 0.16974923 0.4096253 -0.1468447 -0.13070929 -0.28776607 -0.2523991 -0.10355831 0.14890578 -0.083249025 -0.2724868 -0.17198913 -0.1481557 -0.28057307 -0.008973314 -0.3312846 -0.13491744 0.07468444 0.20520525 -0.06107151 -0.33725747 0.14918922 0.04843904 0.09888788 0.30214113 -0.1340038 -0.4201914 0.006860855 0.15903717 -0.022896565 -0.29640976 -0.14186679 0.16142072 0.020676604 0.005996043 -0.35476142 -0.1262303 -0.3183393 0.16191316 -0.49128127 0.40977153 -0.07858915 -0.28775495 0.08660481 -0.3967923 -0.10719941 0.073036015 -0.22187132 0.2909246 -0.17743462 -0.22349116 0.13961995 0.12030985 -0.07207176 -0.028417952 0.13876216 -0.3965615 0.15600069 -0.123576924 -0.06464373 -0.19184527 -0.2783142 0.1543589 -0.41815728 0.28306302 -0.2871499 0.040659487
使 -0.15127157 -0.062554516 -0.05338969 -0.0176737 -0.046133872 -0.20652261 -0.036681987 -0.04350805 0.19753122 -0.36429563 -0.12171028 -0.10779362 -0.14575575 -0.08941867 0.059957165 0.11148584 0.22243445 -0.22933844 -0.115986496 -0.25850895 0.3677502 -0.08931053 -0.114894465 -0.037147984 0.003941791 0.23212649 0.115650944 0.5884259 -0.010911165 -0.17732248 -0.048142917 -0.20494822 -0.12707789 -0.18245013 0.43699938 0.09845313 0.09825607 0.25691274 0.121191666 -0.024766805 -0.16723266 0.2106205 -0.27553177 -0.107145675 0.04629896 -0.17403457 -0.26777443 -0.06573548 0.02588547 -0.08365096 0.085607454 -0.055986624 0.14635757 -0.092460655 -0.13596614 -0.063649535 0.15285227 -0.04281956 -0.08319775 -0.08218673 -0.0148561 -0.45319006 0.4110554 0.15491572 0.12676977 0.021766413 -0.1617943 -0.074985854 0.35938695 0.015160476 0.09302952 -0.03884782 -0.34656215 0.1866332 -0.1434549 0.095573865 0.20506543 -0.14097205 -0.14292155 -0.20337494 -0.114535525 0.1343429 0.082964405 -0.06771709 0.56657994 -0.057010416 0.05550368 0.23507722 0.06698069 0.18348026 -0.11861359 0.11717152 0.2022177 0.13857839 -0.017480986 -0.043840256 0.09046369 0.079381846 0.090436175 0.19536869 -0.16588072 -0.093055576 0.0117383385 0.10026173 0.12573856 -0.17644899 0.004121 0.31164667 -0.3407519 -0.11209447 -0.28720883 0.03560654 0.32365823 -0.03710072 0.20633462 -0.055090327 -0.33078474 -0.06416587 -0.16747616 0.085018806 0.28349635 0.0042174933 0.36678067 0.0076755174 -0.29059055 -0.37288675 -0.20519708 -0.10527073
卡 -0.22864495 -0.56897163 -0.1445605 -0.3385909 -0.034045327 -0.31291264 -0.3739984 0.34533754 -0.0071815997 0.021374872 -0.5256069 -0.10669301 -0.2841248 0.001850269 -0.5440174 -0.17855911 -0.14706978 0.16843523 0.053638674 0.13436638 0.15070638 0.044692297 -0.1435037 0.00531145 0.26554194 -0.2181106 -0.06208706 0.63210756 0.2140241 0.13930623 -0.00014872375 -0.012683066 -0.33590406 0.056891304 0.07061038 -0.18982463 -0.61529243 0.2016528 -0.42384362 -0.26990852 -0.23036817 -0.008639371 0.36738458 -0.3693822 0.120575905 0.11308404 0.09492637 0.20869046 0.17499484 -0.2538141 -0.13163568 0.018401984 -0.16392909 0.040435333 -0.3079755 -0.16932346 -0.15740235 0.26664585 0.12914284 -0.083863564 -0.1090989 0.034530632 -0.19591467 -0.115628555 0.1602848 -0.25790554 -0.58049643 -0.1629677 0.45201957 0.2971215 -0.45333755 -0.2173285 0.13237679 -0.31220016 -0.06688583 -0.13660209 0.0601913 0.1942176 0.05840736 0.30991104 0.36676377 0.35746896 0.44411117 0.4634578 0.30733284 -0.09196808 0.1694983 0.12393062 0.20163126 0.20393819 -0.06777468 0.25135285 -0.06436393 0.53170973 0.0715327 0.059377562 0.4413695 0.311169 -0.5574262 0.52519804 0.21946855 0.55713886 0.34800768 -0.10978628 -0.47427806 -0.13264833 -0.22754048 -0.29422787 0.019662194 -0.151186 -0.08390319 0.011335372 -0.10794036 -0.06978018 0.07191713 0.0041779126 0.38989544 0.19738929 -0.116568685 0.07824491 -0.15868564 0.11819652 -0.3945647 -0.10204029 -0.34709296 -0.25939274 -0.20858301 -0.16520074
会 -0.2549427 0.030434 -0.1659867 -0.1183409 0.019361561 0.3035412 0.16773616 -0.033327427 -0.056203432 0.031535223 0.18759264 0.22639495 -0.14187527 0.03849906 -0.22433645 -0.07608655 0.25997058 -0.21927205 0.1079635 0.32124197 0.15782948 -0.0743818 -0.20270555 0.34917226 0.091062985 -0.2440715 -0.25084123 0.28194603 0.029121637 -0.33841532 0.095118456 0.049018938 -0.19379252 -0.032100324 -0.12653442 0.036776606 0.17167144 -0.056176938 0.020195635 -0.18554881 -0.5191359 0.08901189 -0.23446587 -0.21576224 0.19491942 -0.11078059 -0.2719999 0.24071182 0.27893987 -0.05699811 -0.12405471 0.046634864 -0.18246876 0.16239266 0.029211808 0.41015935 -0.61890167 0.009513604 0.17786922 -0.04483377 -0.13798776 -0.41458175 0.15772586 0.1417178 -0.12462491 -0.17998135 0.16729861 -0.22552566 -0.009789202 -0.09264269 -0.030000025 0.17071809 0.24514112 -0.07156283 -0.41953906 -0.0008410455 0.20825039 0.03718706 0.13170134 -0.030771086 0.14493465 -0.19979016 -0.06066243 -0.09154983 0.13387413 -0.008304445 0.33102494 0.15326293 0.09280712 -0.11724992 -0.15532711 -0.36916465 0.23085763 0.04308973 -0.08528989 0.25751024 -0.17484766 -0.023585282 -0.26103127 0.29065633 -0.15244327 -0.29784718 0.64226806 0.06924397 -0.11137766 -0.26447377 0.34340462 -0.010607554 -0.12488417 0.1889897 -0.17063831 -0.038421843 -0.02671566 0.07712529 -0.19637397 -0.16907825 0.18107241 -0.040740635 -0.10223825 0.07431217 0.3577347 0.2506051 -0.20827037 0.41768876 0.045107342 0.11541586 0.06986928 -0.0154701425
手 0.1872318 -0.30262315 0.41982174 -0.1720132 0.3212916 -0.40747145 -0.537523 -0.05102428 0.07916509 -0.3633135 -0.110213295 0.2937994 -0.52057445 0.65623915 -0.58599323 -0.17996858 -0.14439093 -0.14174074 -0.08179368 -0.12565188 -0.055406284 0.059215475 -0.12989005 -0.07609746 -0.023164831 -0.5889775 0.32184458 0.16373529 -0.06818876 0.009072961 -0.085255854 -0.7133074 -0.21632014 0.017990263 0.20018235 -0.010277691 -0.13705051 0.18818809 -0.054810207 0.035606924 -0.13602763 -0.0073101204 -0.12120737 -0.37616155 -0.10814332 0.06525372 0.067024924 0.28954807 0.10795192 0.3833089 0.21696459 -0.2362328 0.20122783 0.6640639 0.017554622 0.11166772 -0.101753555 0.13261138 0.22564174 0.082762845 -0.3377096 -0.091630876 0.4063432 0.33359036 0.3391815 -0.24117243 -0.141646 0.30677193 -0.036642134 -0.21209459 -0.09435339 0.0702055 0.25045034 0.57489634 0.04457558 0.074358515 -0.25306138 0.16528337 0.38755345 0.12263498 0.056047138 0.042000737 0.12986195 -0.3008369 0.2347073 -0.23262793 -0.14325882 0.17160244 -0.21655059 0.12210499 0.24394207 -0.25214306 0.20800233 0.13083012 0.30507052 0.27559838 -0.67357326 -0.49354818 0.033884123 0.1215078 -0.24284817 0.28880236 -0.25319895 -0.03181767 -0.28106913 -0.27398655 0.10263176 0.2759023 0.18638848 0.28548285 0.022574922 0.3627348 0.32842252 0.36639038 -0.10738503 -0.27069598 -0.27803168 0.0055978387 -0.3973887 -0.18669531 0.072306246 -0.09110651 -0.45631486 -0.034591265 0.06844079 -0.096729234 0.21733673 0.020999402
信 -0.020392837 0.034648288 -0.22894642 -0.2338973 -0.3780962 -0.67034006 -0.27778983 0.08761003 0.22915469 -0.3342257 -0.32508665 0.032376666 -0.13120255 0.28730094 0.32136807 0.15022919 -0.13647757 -0.103409685 -0.08085422 0.035575666 -0.22558764 0.111692406 0.25226098 -0.037782725 0.2661282 0.091752425 -0.7513494 0.23893765 -0.17605147 -0.30734292 -0.23385936 0.19717252 -0.34774283 -0.5042335 -0.038492423 0.104947746 -0.17943747 -0.12667301 0.12901361 0.3396083 -0.8322096 -0.26401567 -0.025710244 0.045335937 -0.3119935 0.02130775 0.043558884 0.17462374 0.1557932 -0.049894057 0.13578986 -0.42080954 -0.18986136 0.34417373 -0.6407868 -0.26211962 -0.13866845 -0.090342455 -0.14057721 -0.11240532 0.12829857 -0.22446392 -0.015727872 0.033194363 -0.037906338 -0.1277295 -0.23050138 -0.25903285 0.077815615 -0.220687 -0.28792617 -0.013554254 -0.09809124 0.014578384 -0.4910819 0.41085055 -0.088814735 0.0138446735 0.4815986 -0.05059105 -0.30834088 -0.002505164 0.032767806 -0.24966204 -0.03368122 0.10075295 -0.12052656 0.447113 -0.40767166 -0.4157429 0.07493777 0.1706518 0.15693797 0.07685279 -0.0825936 -0.26840058 0.160419 0.1504607 -0.14698206 0.70900625 -0.15316065 -0.4332657 0.046466727 0.08729963 0.37090945 0.01453268 -0.034446746 -0.2839384 -0.13333322 -0.17788972 -0.20662068 0.23451312 0.064803675 -0.22946441 0.16025794 -0.30885974 0.052220017 -0.19901618 -0.23520185 0.67824745 0.2349112 0.29472694 -0.46192232 0.20891619 0.21684983 -0.0021426 -0.13594793 0.31675562
里 -0.18287966 -7.6452954e-05 0.22539142 -0.06157731 -0.035802975 -0.10999021 0.1683945 -0.09521377 0.09913368 -0.027075881 0.4141286 0.11662292 -0.27439559 0.36847928 0.03896158 0.52816474 -0.29308945 0.5362653 0.120222226 0.032891795 -0.29112804 -0.0134294955 0.08106091 -0.25660303 -0.20411374 -0.1114491 0.04930173 0.33299205 -0.25192928 0.25581062 0.3290806 0.13412522 0.061491568 -0.052515887 -0.16741662 -0.02098393 -0.060562257 -0.00072301005 -0.11111409 0.22373162 0.28539684 -0.18959293 0.35348022 0.004513213 0.21463794 -0.0940167 -0.0861116 0.01055997 0.13510722 0.24813016 -0.37976763 -0.18737407 -0.21324888 0.54267603 0.109151505 -0.16781794 -0.1126584 0.18495256 -0.25085598 0.124521695 -0.07517279 0.038166624 0.14644952 0.10208454 -0.3234855 -0.061083272 0.19762827 -0.107399225 0.263473 -0.06472639 -0.34406018 0.112266086 -0.2919835 0.096452385 0.11722004 -0.19511305 0.03307875 0.025037466 -0.31192645 0.025287447 0.027566975 0.21983176 -0.04926074 0.5975664 0.046002787 -0.14999385 0.1758767 0.3489228 0.06984684 -0.0678754 0.11701791 0.17596984 0.21391656 -0.044309262 -0.21285786 0.3495281 -0.12725313 -0.22546174 0.048816714 0.0912124 0.25793195 0.121634126 0.15516345 0.05098751 -0.02830378 0.024843343 -0.12770554 -0.09421 -0.08836644 0.2631632 0.06321264 -0.24308297 0.38722435 -0.30893752 0.1504087 -0.6092236 0.43003407 -0.38038206 0.14535455 0.26942998 0.15186644 -0.056706864 -0.34778818 -0.2209925 -0.32566512 0.03061422 -0.33918533 0.04490065
码 0.24804677 -0.33039886 -0.066773355 -0.18202098 0.46761832 -0.43945643 0.11744252 0.1803974 -0.0007409202 -0.6187706 -0.69386667 -0.3198907 0.06656986 0.4784891 -0.35379556 0.08220163 0.13650315 -0.146189 -0.2031785 -0.22479539 0.0072050863 -0.078493685 -0.07915758 0.06492625 0.31608823 -0.5067431 -0.272834 0.26827562 -0.18271267 0.026110327 -0.68606824 0.16626614 -0.31632745 -0.06419396 0.19016148 0.092147574 0.2301035 0.29453346 -0.3696648 0.18011054 -0.26362613 -0.3435324 -0.15581605 -0.31026858 -0.14359058 0.16102128 -0.04586579 0.2929174 -0.19481525 0.16481578 0.106697485 0.06726405 0.18682726 -0.1782031 -0.11573618 -0.37382725 -0.1644097 0.21853398 -0.08562205 -0.00365191 -0.450389 0.018863099 -0.45499188 0.13361844 -0.51286584 -0.51936895 -0.4076523 0.65596765 -0.28815424 -0.11093425 -0.36716014 0.31235597 -0.18731962 0.24853575 -0.51578987 0.03062087 -0.20801501 -0.20987503 -0.26983956 -0.17236254 -0.21243833 -0.110654704 0.59004164 0.078214146 -0.13014509 -0.13490596 0.029892422 -0.032701854 -0.10971081 0.44059095 0.19335324 -0.054291558 0.46999404 0.54177797 -0.5020555 0.18181778 0.1841903 -0.48377287 -0.37438837 0.26630634 -0.032964483 0.5650011 0.1792079 -0.13834643 0.36647317 -0.030194186 0.19014058 -0.45501113 0.06958988 0.1849814 0.05505332 -0.20732482 0.3439704 0.053450774 -0.054872762 0.048740108 -0.29951635 0.109427005 -0.11523536 0.23681451 0.22523563 0.37723735 -0.1472771 -0.33405522 0.14601606 -0.30076686 0.21926811 -0.09635497
现 0.17114013 -0.09885997 0.33399814 0.026770676 0.023880905 0.06607308 -0.48615494 0.16084185 -0.08607503 -0.13066307 0.26649833 0.10885768 -0.15672936 0.014505163 -0.027786583 0.04524045 -0.17929398 0.14648373 0.106352195 -0.027962865 -0.048935365 -0.0381231 -0.37840506 0.117796265 0.18866847 -0.04266937 -0.07852779 0.2958526 -0.003806205 0.20949537 -0.035469018 -0.047497984 -0.03890584 0.110592484 0.10683723 0.2659759 0.12255942 -0.18353622 -0.08436037 -0.055866018 -0.24183542 0.056484208 -0.020003814 0.07684014 0.060201645 0.07790479 0.111468494 -0.0063396324 -0.26028484 -0.018173376 -0.07123357 -0.3685501 -0.020263635 0.07062415 -0.13026044 0.33647346 -3.3557182e-05 0.09770346 -0.13695808 0.29636005 -0.34256938 -0.096468925 0.09528484 0.09448589 -0.13134013 0.15254022 -0.069448076 -0.19396056 -0.16820253 0.033435553 0.0068113203 0.03607237 0.060187373 0.039164215 0.039937343 -0.18237697 -0.488502 -0.31063062 -0.117305174 -0.005315142 0.14691211 -0.11266742 -0.08937265 0.054405704 0.12077143 -0.1694776 0.023053441 -0.18145205 0.07005644 -0.20608251 0.19319558 0.011129073 -0.023929344 0.35328898 0.05503454 0.20745134 -0.13292 -0.31556064 0.020893661 -0.48835853 -0.2805969 0.50794244 0.079098776 -0.022924803 0.0064181043 -0.057928648 -0.07123488 -0.12724897 -0.2538967 0.08379729 -0.20040052 0.17323881 -0.0674879 -0.1901951 0.366325 -0.53404343 0.2099149 0.24492769 0.056240335 0.17554714 0.28084067 0.044460617 0.2399752 -0.16334271 -0.13378657 -0.12904625 -0.31066048 -0.17543572
扣 7.769571e-05 -0.098670594 0.60494727 0.12104589 -0.1340822 -0.13762063 -0.17678721 -0.122113034 0.09014112 0.32737485 0.06997333 0.13890712 0.08148978 -0.16159335 -0.24995309 0.39731216 0.057510555 0.16101946 -0.5026555 0.17875023 -0.3171692 -0.4767358 -0.05811503 -0.21375865 0.10954584 -0.50676155 -0.06920021 0.3340029 0.26573303 -0.098765574 -0.1329701 -0.4364022 -0.072438896 0.15046759 -0.44358754 0.33985573 -0.31967542 0.04703079 -0.09356236 -0.54908156 -0.29867795 0.004980663 0.45641357 -0.09830978 0.17573462 -0.14241777 -0.18315075 -0.023072697 0.22696666 -0.21759717 0.12744665 0.03784999 -0.057363026 0.21531199 0.25937822 -0.01605585 -0.26806492 0.47931942 -0.14296727 0.0031614765 0.014476086 -0.117079556 -0.1669534 0.19944672 -0.17235589 -0.13767055 -0.122869544 0.08418775 -0.07093481 -0.123533 0.24852927 0.07837788 0.07982225 0.20068735 -0.25111535 -0.18735336 0.7024199 0.26482466 -0.07740276 0.01872633 0.12157955 0.024129115 0.18007359 0.2475803 -0.012655679 -0.26432362 0.15497345 0.22573687 0.047191393 0.108559564 -0.048722554 0.2964729 0.007926939 -0.013665046 -0.30292088 0.003321472 -0.4744224 0.6125194 -0.48735338 0.1772139 -0.18146874 0.10317522 0.19762546 -0.05100759 -0.28746802 -0.03215798 -0.029888876 -0.23125774 0.039369702 0.0775767 -0.2502018 0.07087583 -0.09412719 -0.20086432 0.22900596 -0.3451318 0.4119678 -0.7540824 -0.09729798 -0.28613222 -0.04812342 0.12006465 0.13251424 0.16380878 -0.36374032 -0.113957964 -0.23742142 -0.08583533
示 0.4725951 0.013569054 -0.06371931 -0.2525523 -0.5132285 -0.058336526 -0.32267123 0.51327574 -0.1553907 -0.04960317 0.15739295 0.16937377 -0.17739587 0.057076212 0.052211612 -0.16279098 0.02470527 -0.00017925893 -0.065935016 -0.064736456 0.25557524 -0.32461748 -0.8675926 -0.117090374 -0.07081002 -0.21153218 -0.012506017 -0.18143123 -0.3114718 -0.036382325 0.0693685 0.0004852171 0.28772625 0.2936925 0.2660211 0.06790867 0.19022192 0.24858399 -0.08754772 0.33977354 0.08200558 0.035680696 -0.021383781 -0.024709217 -0.1789138 0.044582766 0.08659287 0.3267372 -0.11734879 -0.31744587 0.27924553 -0.0068716053 -0.015059832 0.2846173 0.3554277 -0.13617131 -0.24276438 -0.050783984 -0.021809427 0.052227024 -0.29411662 0.43775904 -0.02095099 0.103924334 0.19059372 -0.00555913 -0.49050075 -0.45684242 0.21051829 0.19638878 -0.28987667 -0.26864833 -0.027974604 0.18696515 0.0038549972 -0.29047143 -0.19208212 -0.091518745 0.39882237 0.29912 0.47460514 0.0733485 -0.011897435 -0.33226466 -0.14448872 -0.29611188 -0.002229285 0.20588192 -0.02557652 -0.032933127 -0.029504282 0.29313904 0.056987606 -0.16100067 -0.49227858 0.4852748 -0.41037947 -0.109100565 -0.48166245 0.26815245 -0.25279358 0.25312725 -0.11908439 0.20260319 0.0038681165 -0.13399166 0.082324155 -0.48966873 -0.07665119 -0.001604422 -0.03326109 -0.28996897 0.29734433 -0.26888105 0.21582688 -0.035271436 0.3656803 -0.04189259 -0.1627052 0.22454062 -0.2666668 -0.401212 0.08500274 0.48315194 -0.4430317 0.23908505 -0.2651221 0.01837948
天 -0.25443912 0.08707094 -0.14923522 0.1482937 -0.08707993 0.07808635 -0.031691335 -0.04034431 -0.054806996 -0.48606572 0.04355136 0.24087748 -0.022884252 -0.03787914 0.0015794563 0.15582837 0.101691864 0.19150443 0.07636384 0.058261886 0.12518765 0.10864137 0.22973652 -0.1642105 -0.2490288 -0.16910051 -0.22791235 0.74683225 0.36015227 0.14507954 -0.300011 -0.037552156 0.053558003 0.14935742 0.12339461 -0.20092817 0.024354381 -0.063976936 0.11923441 -0.2801934 -0.047236968 0.3487203 0.17686737 -0.2772283 0.4102175 0.051140685 -0.43219903 -0.375523 -0.0728479 -0.15426488 0.25440383 -0.31096193 -0.13799913 0.24558024 0.1305961 0.15954745 -0.04105961 0.12722646 -0.07904004 -0.31812233 0.16319741 -0.058675826 -0.16631986 0.31509352 -0.047050737 0.233422 0.15501136 -0.13853414 -0.12781395 -0.288318 -0.046767112 -0.15196975 0.27478376 -0.31452656 -0.5906702 -0.040676452 -0.093722455 -0.13231687 0.29573274 -0.11344018 -0.2373809 -0.10301204 -0.16152675 -0.47024053 0.14664863 0.09087648 -0.042404987 -0.09599539 0.591421 -0.3019858 -0.2890333 0.2617098 -0.097789824 0.41197252 -0.18602508 0.36738572 -0.43862686 -0.22864443 -0.52404815 0.18866633 -0.060887355 -0.028952762 0.083230555 0.040757403 0.031351075 -0.021804351 -0.04242007 0.19204572 0.14708509 -0.32181025 0.14676894 -0.13179237 0.13939208 -0.76804554 -0.13917647 -0.18782385 -0.025030954 -0.189586 0.18440425 -0.054933023 0.08465588 0.1741921 -0.20452492 0.31031388 -0.19450435 -0.19828168 0.050605193 -0.06954742
少 0.72316146 0.06798547 -0.10947954 -0.4739872 0.16570169 -0.64826953 -0.12909423 0.042471822 0.16650294 0.29608342 -0.033122465 -0.23110351 0.16129938 0.111154474 -0.07176111 0.497688 -0.04920974 0.3197763 0.3043972 -0.35629106 0.0057439627 0.055930037 -0.2540381 0.16128694 -0.61221975 -0.058394026 0.28785113 -0.14155895 -0.1230084 0.107782766 0.12343816 0.18707162 -0.22796705 0.24559236 -0.11420222 -0.15380596 0.22407764 0.25784606 0.2565602 -0.037211332 -0.63478655 0.48276997 0.39867234 0.24174516 0.114736184 0.18619381 -0.1570926 0.24037807 -0.024260411 -0.24573825 0.5622431 0.0840584 -0.248725 0.017101966 -0.51764214 -0.21569078 -0.18897475 -0.007856995 -0.1003795 -0.017482348 -0.0052571488 -0.32909355 0.099777885 -0.44826943 0.36773333 0.16139331 -0.0662575 -0.33431882 0.16699801 0.34710142 0.10100562 0.35610232 -0.2139852 0.51122385 -0.051819522 0.3169613 -0.3030584 0.33425808 0.06144631 -0.0947524 0.30350903 -0.42724615 0.77070785 -0.39762372 0.04633715 0.266717 -0.4652543 0.37229288 0.1352469 -0.20949385 0.0638409 0.04811985 0.036835305 0.24641076 0.2022228 0.48220065 -0.49690384 -0.18642707 -0.1771403 0.13194427 -0.1734699 0.0010625566 0.7278804 0.00931889 0.32748696 0.016094154 -0.058629535 -0.16866124 0.43309695 0.5665217 0.48192576 0.22673707 0.23492506 -0.23641975 -0.047206912 -0.093884274 -0.03410691 -0.279687 0.18928781 -0.6699751 -0.0848838 -0.046986766 -0.24388695 0.28378814 -0.3345098 -0.048519112 -0.22802214 0.37018532
这 -0.09449692 0.14813736 -0.020561926 -0.19825867 0.010128556 -0.052983537 -0.42628333 0.03027825 0.026275652 -0.3247478 0.058775693 -0.14597489 -0.455223 -0.30869755 -0.31298494 0.065352894 0.00869575 -0.07974627 -0.47527742 0.010623529 0.04637481 0.11528445 -0.21616095 0.047171976 0.01512826 -0.008304888 0.050342187 -0.05570842 0.3377165 0.06352713 0.2788708 0.07056138 -0.22612368 -0.03196472 -0.20715515 0.18274 -0.046463974 -0.087072745 -0.051794462 0.26129898 -0.04958996 0.07985668 -0.38847005 -0.11362797 -0.017531129 -0.07349159 0.17269737 0.06630307 0.020931501 -0.12513915 0.24707006 0.033822283 -0.060956415 0.021458961 -0.1717189 0.021440705 0.21637699 -0.19597425 0.011633743 0.057898495 0.12605682 0.19877093 0.37888303 -0.19501764 -0.23758365 0.08723654 0.11239123 0.16117784 -0.050401546 -0.21108569 0.25148427 0.20774704 -0.18607883 0.12530297 -0.0709158 -0.015320955 -0.12063609 -0.0540343 -0.03321062 -0.09378188 0.117253765 0.24801962 0.04657964 0.017036038 -0.10577797 -0.020185495 0.14410494 -0.15005948 -0.047002356 0.13059278 0.42620325 0.15401085 0.08089251 0.021636426 -0.064121105 0.3312187 -0.118624024 0.26362646 0.14276509 0.038714007 -0.11863005 0.098517686 0.25033265 -0.24769759 -0.08324361 -0.095688626 -0.2031104 -0.2215091 -0.27979589 0.11442288 0.14435306 -0.21410131 0.11112214 -0.17253602 0.054610558 -0.06743321 0.28959388 -0.22322294 -0.03882318 -0.106428586 0.10439641 -0.05358644 -0.11772454 0.2929617 0.09414506 -0.17413133 0.07846808 -0.121653825
商 0.17333731 -0.27144852 0.046966553 -0.5009908 -0.28067586 0.14167513 -0.010702771 0.21900967 -0.14208816 -0.039816074 -0.00025509673 -0.3161156 -0.57082796 0.019677717 -0.16840251 0.24177395 0.012334509 0.13122967 -0.24577934 -0.78121924 -0.19268593 0.4397811 -0.12668973 0.4079508 0.500419 -0.33866236 -0.22967535 0.06144229 0.16061711 0.7650984 -0.82107145 0.058106333 0.15164044 0.44928917 -0.09736737 0.013070736 0.25621083 0.48809305 -0.15677315 0.52749884 -0.4868199 0.109490775 0.0989023 -0.43647093 0.24214756 0.121413775 -0.41661292 0.19145232 0.0078016142 -0.08381966 -0.4332049 0.122773275 0.12453337 -0.18252188 0.17558233 -0.1125802 0.26884505 -0.09764503 -0.37800652 -0.056165814 -0.06412946 -0.45896897 0.28731298 0.121785745 0.5192006 -0.06650655 0.03628811 -0.3176051 0.1318483 0.27511722 0.07608228 -0.273138 0.30696845 0.08395767 -0.44159806 -0.22641166 -0.1450164 -0.0859894 0.2075348 -0.12946317 -0.20213415 0.40705782 -0.063698865 0.29296756 0.17061189 0.2721122 -0.15326217 0.01797551 0.10791253 0.2960094 -0.09432047 0.39006877 0.42565873 -0.27796116 0.04405839 0.057478707 0.030541038 -0.021918017 -0.3065277 0.039369483 -0.12306569 -0.014594186 -0.08230338 0.33805886 0.0016790717 0.11741818 -0.14244708 0.46041918 -0.006812417 -0.15336183 0.36034828 0.22134061 0.13948849 -0.20003225 -0.5628637 -0.22299396 0.71226037 0.1239714 0.1361772 -0.14525288 0.04469519 0.87023425 -0.40635005 -0.5373136 -0.072701156 -0.11502671 -0.11181557 -0.11718294
行 -0.017883582 -0.40215212 0.060579725 -0.5829429 -0.29458416 -0.0822631 -0.5891592 0.22591592 0.06837878 -0.14532119 -0.36117607 0.15224884 0.06418709 -0.2646459 -0.14403743 -0.12901703 0.27747643 0.22748718 -0.05765601 0.33728415 -0.0063628955 0.17278935 -0.09467793 -0.04032014 -0.27109373 0.16935962 -0.3051267 -0.18346411 0.065963805 -0.032253373 0.14978005 -0.39687783 0.06836306 0.18896732 -0.052315067 -0.010115734 -0.15548936 0.0605576 -0.77875495 0.022838335 -0.25648776 -0.078502774 0.28337812 -0.46539018 -0.08449692 0.31542957 -0.035315953 -0.024089359 0.12242389 -0.012258854 0.028497085 0.013660815 -0.26068375 0.2552513 -0.2392237 -0.3984681 -0.76174194 0.2529329 0.19351141 0.333535 -0.10501599 0.27368748 0.07774887 0.08221727 0.21365456 0.051201012 -0.73781025 0.026258443 0.08394911 0.009218223 -0.09438838 0.15886733 0.013288504 -0.33915898 -0.107914105 0.12759161 0.0946608 -0.19064516 0.25445783 0.123282015 0.2034352 0.34752133 -0.069825634 0.4328842 0.13525763 -0.11764796 0.27509525 0.08439582 -0.3963498 -0.14950559 0.20499252 -0.046853684 -0.16287363 0.1268298 0.10157835 -0.43551305 -0.020398635 -0.19849434 -0.69668317 0.46508121 0.13817312 0.10556519 0.2091729 -0.09053781 -0.57147306 0.40224314 -0.26720428 -0.09473146 0.10857061 0.37517968 -0.06705978 0.3022479 0.047707338 -0.07383092 0.21512017 -0.26346523 0.17600808 -0.60594076 0.296028 0.23897465 0.40769777 0.44024357 0.40509447 -0.26161987 -0.21391043 0.084366724 -0.06924119 -0.058203418
关 0.07603386 -0.103520215 -0.12318205 -0.054780286 -0.29893413 0.033770844 -0.068143554 0.52987015 0.40694267 -0.69829565 -0.35619745 0.11301155 -0.031195162 -0.15205152 -0.045820847 -0.21774721 0.30366018 0.101891235 0.08346113 -0.031697527 0.25668472 -0.006523381 -0.23784325 -0.12298344 0.37285027 -0.48597753 0.2788016 -0.26841533 -0.13755593 -0.08911567 -0.5160994 0.43692252 -0.17262033 0.19048224 -0.10078287 0.17988314 -0.31443557 -0.3201942 -0.05701149 -0.011411507 -0.09040558 -0.015957315 -0.030396149 -0.2514729 0.16795921 -0.55718464 -0.20787433 -0.064107426 -0.10571589 -0.07031818 0.3216438 0.35230103 0.37801078 -0.107913025 -0.10077812 0.33337986 -0.117857195 0.28354922 0.22508414 0.080813475 -0.1795865 -0.24321187 0.13422012 0.048552867 0.07378007 0.20032927 0.2806316 -0.33141205 0.01276399 -0.45226452 0.29747483 0.14120376 0.09007341 0.014566885 -0.10402523 0.3036121 0.123099454 -0.47809967 -0.031074652 -0.38404816 0.27794638 0.46729386 -0.16034186 0.20523861 0.110249355 -0.14576645 -0.024650551 0.041780476 -0.018597744 0.31392998 0.47700012 0.33047864 0.32547075 -0.16330384 -0.09670683 -0.017299522 -0.014032972 0.15945059 -0.25039613 -0.41685435 -0.34149227 -0.41740417 0.44792104 0.12872325 0.47466728 -0.34421158 -0.14056957 -0.30751705 0.19352342 -0.086684726 -0.10346748 0.033921096 0.3929822 0.26230586 0.08821419 -0.46209744 0.74045986 -0.31483912 0.17849499 0.20620821 -0.15120697 -0.5765955 -0.20432289 -0.45243776 0.271879 -0.08625287 0.1461474 -0.23297349
上 0.14014032 0.07855 -0.13768406 -0.4933227 0.099599175 0.06967406 -0.13985218 -0.23988077 0.09778161 -0.16756244 0.104509965 0.100087665 -0.27360252 0.0983808 0.15069899 0.029638521 0.024108125 0.09413977 0.0050454796 0.19378895 -0.078821495 -0.11285404 -0.111102715 -0.009836759 -0.086676374 -0.0658891 0.25379634 0.23508765 0.46885705 -0.055805687 0.20491534 -0.14354448 -0.15884629 0.2126615 0.21858102 0.19208515 0.1677846 0.10726208 0.06341634 0.11173004 0.3372093 0.052480135 -0.12818895 -0.040882956 -0.24029605 -0.017189125 -0.09761104 -0.26664096 -0.061351594 0.1505903 -0.13415739 -0.14959446 0.018871218 0.08333414 0.16634488 -0.3230928 -0.23582445 0.09665418 -0.11387187 0.16583644 -0.21734083 -0.20277743 0.12764844 -0.1666719 -0.2659165 0.18167831 0.07564836 -0.1949246 -0.061713796 0.040167294 -0.12353763 0.03176566 -0.16851032 0.13685109 -0.31375045 -0.34885868 -0.3283348 -0.16213046 -0.20173384 0.04858743 0.022901842 0.20508829 -0.073189944 0.038355414 -0.036339633 0.20947571 -0.20235755 0.14953834 -0.12674807 0.18969795 0.14324711 0.17288059 0.03616891 0.03587517 -0.15150258 0.22313057 -0.38345 -0.038081072 0.041368093 0.1018355 0.36571854 0.09090963 0.17485763 0.08078758 -0.0039491416 0.066854745 -0.13539676 -0.14773808 -0.63263726 0.071494594 -0.08958484 0.05189551 0.44354013 -0.450446 0.29317164 -0.2702901 0.36255628 -0.4187413 0.075448826 0.203944 0.070690736 0.058314417 -0.011341387 -0.053315617 -0.029738568 -0.024359416 0.054289866 -0.067609
逾 -0.13786562 0.19895487 -0.049824476 -0.25794458 -0.23715475 0.097123764 -0.067127995 0.357524 0.40234688 -0.23519136 0.040109754 -0.43091303 0.083443195 -0.10012949 -0.43251383 0.2635954 0.3430041 0.21950099 -0.05458906 0.41257206 -0.016528301 0.37915266 0.21069454 0.32029095 0.019625261 -0.07731677 0.040340867 0.3396542 0.37729743 -0.15353224 -0.21246949 -0.30138892 0.0018831005 -0.04932458 -0.1424264 0.2436233 -0.005178228 0.104785934 0.10389617 0.023602718 -0.22782823 0.4184874 0.027663928 0.45790362 0.39721096 -0.5563629 0.1505881 -0.079386495 -0.35426506 -0.014083718 -0.025088705 0.28097868 0.44994858 0.31408763 -0.18238397 0.5406045 -0.20189236 0.26628852 0.054671206 -0.033991735 -0.24568649 -0.04321229 0.08073635 0.11026887 0.34735754 0.4578316 -0.21602416 0.09095218 0.14061171 -0.33465272 -0.095443025 -0.27732527 0.20525435 -0.08462381 -0.66953546 0.45024383 -0.38786116 0.25535074 -0.01335482 -0.10519993 -0.0980486 0.12396678 0.11880855 -0.119063355 -0.007962049 0.7440595 0.1785248 -0.2058659 0.25551227 0.02408671 0.024083052 -0.16451278 -0.4679989 0.41211697 -0.48508415 0.029157704 -0.17900169 -0.044954527 -0.24428196 -0.36914086 -0.32891244 -0.42770195 -0.1538586 0.18172799 -0.39908293 -0.3586831 -0.020981634 0.29290822 0.20713541 0.021706287 -0.39687267 -0.24678972 0.29807973 -0.293711 -0.020486038 -0.39469728 -0.04713997 -0.6050552 -0.01633598 -0.3107599 -0.15307151 0.34295473 0.0018002599 0.5854863 0.4305188 -0.08831084 -0.22769423 -0.16508648
动 0.20555285 -0.17264014 0.5893103 0.2350015 0.40080595 -0.09368299 0.37419504 -0.13368142 -0.09841571 0.20095854 0.2698634 0.5318146 -0.056091215 -0.23282228 0.19603615 -0.14441909 0.075970404 -0.06008728 -0.51068485 0.005250651 -0.07043716 -0.25534198 -0.32714543 0.08150286 0.08449622 -0.33624074 0.0057643466 0.05528607 0.5246767 0.29391935 -0.031454798 -0.12341098 -0.35053205 0.211097 -0.36532596 0.30527288 -0.114051074 -0.04299667 -0.103809215 -0.08982862 -0.563434 0.54782486 0.13331328 -0.37223387 0.20516351 -0.8026604 -0.018480161 -0.05724958 -0.068309546 0.0058462843 -0.22789322 -0.4104572 -0.18062541 0.22508387 0.1259365 -0.14273901 -0.18096423 0.10242579 -0.24527538 -0.19247559 0.24872606 0.022283858 -0.24334133 0.38523915 -0.5082584 -0.00676357 -0.4572585 -0.5653475 -0.06244316 0.15739292 0.07755706 0.06164635 0.37615535 -0.22043572 -0.25262854 0.64219594 0.2537346 0.12073821 -0.32437775 -0.3186628 0.15441386 -0.032708056 0.0147113325 0.73345697 -0.40288836 -0.33536842 0.6441941 -0.028428895 -0.061769392 0.03875389 -0.030241081 0.16681395 0.1842472 0.3313302 -0.070177495 0.28948197 -0.005887469 -0.082052074 -0.250115 0.35180828 0.08606143 0.1700337 0.28572908 0.43938133 -0.32283017 -0.12539968 -0.034250315 -0.13327238 0.1452694 0.2159921 0.1965303 -0.048995208 -0.13246998 -0.2963794 -0.029128056 -0.13689928 0.03728182 -0.50183034 -0.20498656 0.055015523 0.53565663 -0.26051107 -0.3210531 0.15318075 -0.2809284 0.24560355 0.17416632 -0.031232014
